conv1.weight,conv1.bias,fc1.weight,fc1.bias,fc2.weight,fc2.bias
0.010893077,-0.12947962,-0.045475915,0.041494183,0.028983597,0.024630927
0.081358954,0.14094801,-0.06180456,-0.09049397,-0.13579567,0.070108324
0.01755411,0.12805769,-0.034203433,-0.022830022,0.067535006,0.01029751
-0.031631306,0.60359424,-0.027152704,-0.062189642,0.057740096,0.08196488
-0.12497875,,-0.0040726555,0.070046395,-0.034360003,0.049135454
0.0012693491,,0.08852559,-0.0010583163,-0.08216158,-0.07977411
-0.027062649,,0.03977753,0.002426252,-0.06045489,-0.04442789
0.058706436,,-0.0034171678,-0.0036173507,-0.012872927,-0.096688055
0.12863679,,-0.06351753,0.027552288,0.097176656,0.07839816
-0.028361818,,-0.0131354015,-0.033491638,-0.063393146,-0.05960738
-0.004223065,,0.055117656,0.061016493,-0.04356339,
-0.11213529,,0.06789462,-0.03033059,-0.13081823,
-0.08800598,,0.04222711,0.047970362,-0.04654926,
0.090215504,,0.055796918,-0.024282327,0.0826225,
0.14952703,,0.051975705,0.019084211,-0.094968654,
0.08481099,,0.016480885,0.0729759,-0.105265595,
-0.06682823,,0.004560203,0.055098716,-0.022001008,
-0.123908505,,0.0130726565,-0.010418448,0.015149958,
-0.118957,,0.036162466,-0.071596585,0.004899698,
0.03710682,,0.034599863,0.03720288,0.09185351,
0.14867136,,0.056267075,0.017301105,-0.06678428,
0.10082069,,-0.08782318,0.05538225,-0.029130511,
-0.048446804,,-0.06030444,0.056362357,0.02912217,
-0.05041853,,-0.0396151,-0.05504152,-0.010452558,
-0.1519486,,0.0589868,-0.048202682,-0.1661835,
-0.105483584,,0.023006797,0.053725474,-0.070497364,
-0.017450245,,0.01710708,0.055962157,-0.08580354,
0.21900019,,0.05606341,0.03110504,0.09379979,
0.008502855,,0.0005657149,-0.025549466,0.12798464,
-0.08756838,,-0.094121866,0.00041029326,0.19648865,
-0.047631152,,-0.11386472,0.018902974,0.09065233,
-0.030999051,,0.022848647,-0.028164065,0.058571015,
-0.10977456,,-0.0052384306,-0.05672127,0.025581399,
0.124024674,,0.009787509,0.0052951165,-0.013966055,
0.0644982,,0.0592793,-0.020764371,0.03578026,
0.06270491,,0.013913379,0.05732258,-0.031568963,
-0.00609776,,0.01618767,-0.044902217,0.07241701,
-0.0579858,,-0.012792353,0.024897706,0.18545812,
-0.029437974,,0.05319843,0.036129333,0.06364469,
-0.08800302,,-0.042400345,0.04527755,0.046281237,
0.048563942,,0.04732532,0.06109885,-0.062431365,
0.10832875,,-0.03793054,0.013619277,0.021148331,
-0.029583821,,0.030456383,0.04020827,-0.023488343,
-0.075599775,,0.008878499,-0.04112134,-0.092416376,
0.025776943,,0.06131995,0.025986373,-0.02386656,
-0.050078273,,0.034250278,0.049132273,-0.014031304,
-0.05546232,,0.013125058,0.016121661,0.03540997,
-0.03218938,,-0.0013419493,-0.017171018,-0.08375874,
0.09234714,,-0.07071207,0.060747348,0.095996395,
-0.04308507,,-0.0880671,0.007998044,-0.015313381,
-0.0060255225,,-0.034368563,0.034126617,-0.07324003,
-0.06452272,,0.0676757,0.074182905,0.09237079,
0.047898944,,0.007990205,-0.03740657,-0.044467956,
0.009906635,,-0.02605758,0.0073824804,0.040333144,
0.14222601,,0.020289598,0.031123176,-0.09544077,
0.044760004,,-0.04848927,0.053863943,-0.034678385,
0.05893342,,0.0010506302,0.039441153,0.049873136,
-0.03568872,,0.031576518,0.03381618,-0.08320241,
-0.071198545,,-0.027937511,0.03472582,-0.013463368,
-0.10554328,,0.004108036,-0.047261063,0.030998526,
0.08159138,,0.019153,0.009616822,-0.124405906,
0.116018996,,-0.016733285,0.005685908,0.04863667,
0.003805407,,0.014886273,0.060681958,-0.030657483,
-0.07641801,,-0.063366756,-0.05617658,0.07305944,
-0.082510546,,0.045834523,,0.06428881,
-0.12905826,,-0.03604702,,-0.060973894,
0.017502638,,-0.038506255,,0.114966966,
0.10425044,,0.030813044,,-0.07917253,
0.20146981,,-0.015285122,,-0.055351097,
0.043824386,,0.06985672,,-0.10085028,
0.021258816,,0.044187617,,0.06297393,
-0.06521179,,-0.0034955156,,0.11625153,
-0.062259335,,0.038238753,,0.012021527,
-0.096479565,,0.002339624,,-0.03869597,
0.1889033,,0.045317102,,-0.02999895,
0.07885908,,0.018769888,,0.13208196,
-0.0073796203,,0.082350515,,0.12272502,
-0.093186095,,0.04111028,,0.090371326,
-0.03208204,,0.038696226,,-0.011138063,
-0.08848027,,-0.024709309,,-0.03185573,
0.11252996,,-0.058072217,,-0.0048908205,
0.00534191,,0.004172854,,-0.055313893,
0.13319235,,0.018736338,,-0.08635381,
-0.0004898443,,0.09334443,,-0.109772936,
-0.006807348,,0.001129163,,0.059504624,
0.058790207,,-0.084379934,,-0.035357777,
0.06673986,,-0.0468804,,-0.03800796,
0.002906836,,-0.0407132,,-0.05766764,
0.0649792,,-0.0151820555,,-0.019709641,
0.055130973,,0.0004600278,,0.1286543,
0.014527286,,0.02072231,,-0.08956915,
-0.047466807,,0.08083548,,-0.045630377,
0.011831022,,-0.073295005,,-0.06007048,
-0.07701838,,-0.084745154,,0.090490535,
0.04776512,,-0.10351963,,0.07485689,
-0.084654085,,-0.027381716,,0.072440304,
0.07331792,,-0.0045188814,,0.018638017,
-0.018599514,,0.014827349,,-0.10347146,
-0.11150848,,0.07174641,,-0.026770886,
0.036164075,,0.0063862544,,-0.09781391,
0.008570309,,-0.059959386,,0.035807073,
0.0092878295,,0.036748342,,0.057614416,
0.12914719,,0.024847727,,-0.106715515,
0.076372705,,0.024091028,,0.12701586,
-0.10237436,,-0.0012297607,,-0.1441997,
-0.0011619986,,-0.041870307,,0.049472295,
-0.08788073,,0.017942611,,0.039514713,
0.086885445,,0.021426762,,-0.03072869,
-0.06500882,,0.011464634,,-0.11744998,
-0.011640785,,-0.02721504,,0.055489246,
-0.0024975333,,0.061641734,,-0.1488475,
-0.11165872,,-0.03987448,,-0.096024,
-0.016689474,,0.008921873,,-0.109678015,
-0.054305226,,-0.08432682,,0.08863557,
-0.14573295,,-0.0033860863,,0.038116265,
0.069144346,,0.06500911,,0.055147372,
0.18426263,,0.00796791,,-0.12617603,
0.010065147,,0.050553326,,0.058355395,
-0.09409927,,0.058957122,,-0.07021926,
0.13448416,,-0.044939335,,-0.08439095,
0.085112356,,-0.015206399,,-0.010198672,
-0.07113832,,0.015744204,,0.045622345,
0.040954415,,-0.039214216,,-0.08804994,
-0.046902444,,-0.004297128,,-0.13279194,
-0.06708761,,-0.038680736,,0.21260545,
0.031414386,,0.049984306,,0.009073609,
0.008279305,,0.004956989,,-0.072510734,
0.07061093,,-0.041856803,,0.08794189,
-0.11681947,,0.03503568,,-0.1302806,
-0.010083314,,0.006446282,,0.0050975718,
0.12657335,,-0.043064795,,0.09130852,
-0.02907589,,0.05078189,,0.10416105,
0.044765856,,-0.033971593,,-0.11235545,
0.015269853,,0.004587804,,-0.007747934,
0.016501052,,0.059899583,,0.11562031,
0.0083173895,,0.06418649,,0.09017584,
-0.099036425,,0.05852288,,0.10665285,
-0.027092224,,-0.03399735,,0.049981136,
-0.16743594,,0.016373489,,0.030493204,
-0.016122205,,-0.041244697,,-0.10579933,
-0.04685409,,-0.031934448,,-0.09628595,
-0.058187466,,-0.04473997,,0.07355463,
0.117424585,,0.043902017,,0.1596812,
0.14368284,,0.046133522,,0.14262088,
0.045230903,,-0.030449111,,0.04706624,
0.022875264,,-0.051252168,,0.011049761,
-0.0035654113,,-0.04667417,,0.12989765,
-0.02359445,,-0.0368747,,0.1095767,
0.04510347,,-0.057091452,,-0.026953341,
-0.029696736,,0.04467949,,0.16990118,
-0.12866235,,-0.014062064,,0.13289207,
-0.11664195,,-0.005849657,,-0.029672362,
-0.16923404,,-0.02671033,,-0.015262466,
-0.1289713,,0.0074119167,,0.094975345,
0.014741128,,0.027692188,,0.06990951,
0.066300504,,0.043339718,,0.09824141,
-0.01154472,,0.038897045,,0.0032122952,
0.088238016,,-0.019378714,,-0.12885368,
-0.041642457,,0.025802275,,-0.025767101,
-0.058849964,,-0.016278574,,-0.14648226,
-0.009012782,,0.000385205,,-0.063580476,
-0.010258103,,0.013744013,,-0.013318462,
0.03905619,,-0.012784431,,0.0009870146,
0.062405437,,-0.02652257,,-0.21316615,
0.036394052,,0.045296438,,0.079122946,
0.06668949,,0.013851284,,0.04980167,
0.067923956,,-0.05660025,,0.0921904,
-0.016073618,,-0.050809413,,0.015878083,
-0.049215175,,0.013615056,,-0.0043304856,
0.02765756,,-0.011684445,,-0.1644317,
0.07852363,,0.032708637,,0.098518476,
0.12343609,,0.037504334,,-0.094973095,
0.11042087,,0.031239565,,-0.06477279,
0.050948247,,-0.03680107,,0.08067296,
0.11220564,,0.009721709,,0.048927136,
0.0033489903,,-0.008321128,,0.09584074,
0.009861469,,-0.039130237,,0.0021053278,
0.06005073,,-0.0559764,,0.0033872395,
0.12324585,,-0.03657947,,-0.080665596,
0.09506145,,0.053937964,,0.026655572,
0.100563884,,-0.029680958,,0.020772723,
-0.052768603,,-0.026711224,,-0.1491431,
0.0499417,,0.014357673,,-0.13321626,
0.053493425,,0.031193035,,0.067237966,
0.05261123,,0.03340453,,-0.07831239,
0.07621323,,0.03020051,,0.06888892,
0.034162067,,0.03253583,,-0.13769905,
0.10790083,,0.015277539,,-0.019634016,
0.13352203,,-0.047231063,,0.08514528,
0.022148315,,0.033982053,,0.08298788,
-0.12803821,,0.017396528,,-0.08324853,
-0.14945318,,-0.028509725,,0.050081562,
-0.19540071,,0.009428725,,-0.15525433,
-0.012549751,,0.016513204,,0.18909837,
-0.07941605,,-0.03964725,,-0.057025358,
0.03247961,,-0.0841828,,0.026694428,
,,0.014594721,,-0.14146791,
,,0.03641301,,0.015030748,
,,0.016758597,,-0.024054343,
,,0.0140351495,,-0.112968646,
,,-0.0033192302,,0.07355613,
,,-0.07664364,,-0.048969142,
,,-0.08798264,,-0.06600071,
,,-0.048376773,,0.07295197,
,,0.024236618,,0.007915484,
,,0.033519186,,-0.06265706,
,,-0.0040075374,,0.033386756,
,,0.06316178,,0.068031274,
,,0.035127558,,-0.05141311,
,,-0.04198302,,0.045081954,
,,-0.0053813607,,-0.04150828,
,,-0.019725636,,-0.08874375,
,,0.05875459,,0.030709686,
,,0.024799997,,0.018716717,
,,-0.05703156,,-0.03848867,
,,0.0021779055,,0.030138372,
,,-0.022453735,,-0.008411304,
,,-0.027997116,,0.17987022,
,,-0.019578835,,0.039083928,
,,0.01633293,,-0.016929436,
,,0.026654638,,0.04742211,
,,-0.06095665,,0.008035355,
,,-0.03687611,,-0.09942486,
,,-0.055505402,,0.062149543,
,,0.025861342,,0.13344401,
,,-0.044868346,,0.109320186,
,,-0.009860901,,-0.04185969,
,,0.006986372,,0.10592071,
,,0.04491718,,0.059107043,
,,-0.0563274,,0.0056480304,
,,-0.025116842,,-0.026427582,
,,-0.039514698,,-0.038682334,
,,0.016435554,,0.07806994,
,,0.04235606,,-0.10067889,
,,-0.017810589,,-0.03810473,
,,0.04842096,,0.012843468,
,,0.052334465,,0.021607094,
,,-0.012477262,,-0.017561648,
,,-0.014821303,,0.06057507,
,,-0.05793708,,-0.09147541,
,,-0.0037903679,,-0.00968721,
,,0.015949642,,-0.08261883,
,,0.06706058,,0.06075582,
,,0.023104096,,-0.07673865,
,,0.046371393,,-0.08414114,
,,-0.0060012843,,-0.020775955,
,,-0.059609804,,0.049619935,
,,0.017816875,,-0.0051078442,
,,-0.051653896,,-0.074115396,
,,0.014600687,,0.022322016,
,,-0.032310665,,-0.13794689,
,,0.087684125,,0.00446004,
,,0.05143201,,0.05835454,
,,0.014667295,,0.019850155,
,,0.016975125,,0.13322197,
,,0.027503558,,-0.046815053,
,,-0.020341333,,-0.06956248,
,,0.027028343,,-0.15328768,
,,-0.020209547,,-0.09015128,
,,0.018517613,,0.06356815,
,,-0.02486739,,0.09985672,
,,-0.0042624413,,-0.11483996,
,,-0.011825717,,-0.051280104,
,,-0.044519044,,0.08139674,
,,0.037116144,,0.15555401,
,,0.030910773,,0.065179944,
,,0.0706337,,0.015189487,
,,0.053447958,,-0.064747036,
,,0.037287217,,-0.025258057,
,,-0.014224192,,0.027546983,
,,0.015040601,,-0.13820608,
,,-0.037415028,,-0.09212952,
,,-0.024950622,,0.0563209,
,,0.03277345,,-0.013645122,
,,0.062421184,,-0.012045703,
,,-0.021029098,,0.08508272,
,,-0.054694105,,-0.07979217,
,,-0.06639931,,0.057401128,
,,-0.018617004,,0.11132855,
,,0.042365808,,-0.042731058,
,,-0.04280021,,0.0005432417,
,,0.068734825,,-0.0902076,
,,0.041471455,,-0.033789407,
,,-0.05354641,,-0.103200585,
,,-0.03307385,,-0.17735088,
,,0.064350285,,0.015692778,
,,0.0076739495,,-0.014721456,
,,-0.03877199,,-0.010464469,
,,0.022793032,,0.1039601,
,,0.06473675,,0.15821114,
,,-0.008361278,,0.09891102,
,,0.05186164,,0.035553593,
,,0.06169761,,0.07436091,
,,0.012450241,,-0.11031503,
,,0.034935478,,-0.08175838,
,,0.047790725,,-0.07870004,
,,0.08522645,,-0.008945228,
,,0.1285818,,0.092310295,
,,0.102558106,,0.10424092,
,,0.1109592,,0.042852856,
,,-0.042582266,,-0.020542538,
,,-0.034464378,,-0.055130366,
,,-0.11266913,,0.06284259,
,,-0.009414145,,0.03543326,
,,0.04333357,,0.076753795,
,,0.072899066,,-0.08474444,
,,0.026276562,,0.0738132,
,,-0.02919877,,-0.09961115,
,,-0.057936523,,0.06403317,
,,-0.035086453,,-0.008255909,
,,-0.0011238615,,-0.11578804,
,,-0.022409238,,0.028390588,
,,0.013108465,,0.2179883,
,,-0.01325267,,-0.05767403,
,,-0.09166206,,0.04095118,
,,0.0025366019,,0.016866345,
,,-0.013199233,,0.08081109,
,,0.058921903,,-0.17127922,
,,-0.02361106,,-0.057949938,
,,0.023664502,,0.032953016,
,,0.0030508786,,0.11879848,
,,-0.016908592,,0.0766558,
,,-0.058155973,,-0.09755943,
,,-0.0021039434,,-0.064831525,
,,-0.047277622,,-0.09547464,
,,0.022393474,,-0.052665792,
,,0.03149716,,-0.110877335,
,,0.0017287006,,0.049020197,
,,-5.776643e-05,,-0.085431635,
,,0.01749951,,-0.05247502,
,,-0.03529316,,-0.016175175,
,,-0.012983193,,0.09334334,
,,0.024606707,,0.08447861,
,,0.0008572703,,0.07753392,
,,0.043603428,,-0.00027537512,
,,-0.046200976,,0.043547012,
,,0.0004937612,,0.09722666,
,,0.057425603,,-0.051883094,
,,0.104753725,,0.10637485,
,,-0.07745694,,0.09868283,
,,-0.08910155,,-0.056986857,
,,-0.09234446,,-0.013181161,
,,-0.075334355,,-0.068585984,
,,0.02701085,,0.06346591,
,,0.11523474,,-0.13392876,
,,0.06694242,,-0.08547303,
,,0.0021795249,,0.18847561,
,,-0.033376165,,0.08545584,
,,0.01815452,,0.030124057,
,,0.047323234,,0.03463508,
,,0.03131686,,-0.060394153,
,,0.017126,,0.088833906,
,,0.06763432,,-0.0104873795,
,,0.13384594,,-0.06387695,
,,0.06351098,,0.10295456,
,,0.01490912,,0.14750955,
,,0.019586472,,-0.06053592,
,,0.040751405,,-0.15453117,
,,0.011155733,,0.114145696,
,,-0.03251886,,-0.0044016624,
,,0.018894719,,-0.103516035,
,,0.09708758,,0.12268728,
,,0.110610835,,-0.19741538,
,,0.02676149,,-0.14197302,
,,-0.012602964,,0.13896222,
,,-0.08525281,,-0.026010795,
,,-0.07688398,,-0.04976255,
,,0.031818356,,0.04638021,
,,0.054730628,,-0.009499237,
,,-0.009875198,,-0.102470614,
,,0.014319604,,0.0025986584,
,,0.014661703,,0.15790166,
,,-0.01722455,,0.15937817,
,,0.008388748,,0.10729257,
,,-0.039707344,,0.1030247,
,,-0.031419054,,-0.10395442,
,,-0.07825838,,-0.020579947,
,,-0.07904262,,-0.017487234,
,,-0.023126788,,0.11233805,
,,0.05115121,,0.118564755,
,,0.056680515,,-0.059198555,
,,0.03297709,,0.037384342,
,,0.05753674,,0.055557817,
,,0.002896383,,-0.11798508,
,,-0.061794374,,0.118546285,
,,-0.041670002,,-0.1041373,
,,-0.073008314,,0.0240722,
,,-0.022820313,,0.059235852,
,,0.0010566049,,0.013697256,
,,-0.06796858,,0.04653759,
,,-0.05405395,,0.03355545,
,,0.06055867,,-0.059397053,
,,-0.019166242,,-0.09706044,
,,0.0412518,,0.10434121,
,,-0.0073575717,,-0.16085097,
,,-0.014318046,,-0.061210677,
,,-0.023084722,,0.08532476,
,,0.028457759,,-0.033522733,
,,-0.016072888,,0.053090494,
,,0.062785745,,-0.022321122,
,,-0.05287193,,-0.021832902,
,,-0.062414594,,-0.032633252,
,,-0.00547894,,-0.061731454,
,,0.01824382,,0.07262289,
,,0.008398797,,0.07876176,
,,-0.039974462,,0.036434937,
,,-0.029782185,,-0.032197367,
,,-0.03071608,,0.031053113,
,,0.02293332,,-0.04426432,
,,0.03221692,,-0.054268256,
,,0.037772767,,-0.13071902,
,,0.0079967035,,0.061355818,
,,-0.03534951,,-0.09377139,
,,-0.055988465,,0.07040739,
,,-0.019218337,,-0.04483192,
,,-0.03786121,,0.028888399,
,,-0.011944919,,-0.09352765,
,,0.020541433,,0.099945076,
,,-0.00318686,,-0.020597043,
,,-0.055054333,,0.073800124,
,,0.043463305,,0.051267914,
,,-0.035097703,,0.011804701,
,,-0.039290905,,-0.035748675,
,,-0.028395858,,-0.11804535,
,,0.060973708,,0.04567247,
,,0.040573757,,0.103665315,
,,0.039268497,,-0.17014042,
,,0.010384777,,-0.046341233,
,,-0.0062560537,,0.013626334,
,,-0.033977587,,-0.016156858,
,,-0.0029274418,,0.080379896,
,,0.02054761,,0.070683025,
,,-0.02893172,,-0.04697589,
,,-0.009462613,,0.102935925,
,,0.051929593,,-0.16943944,
,,-0.020173464,,0.11103993,
,,-0.019286152,,0.11985112,
,,0.05163793,,-0.11234988,
,,0.038587153,,0.053892046,
,,-0.018682238,,0.0776028,
,,0.06246357,,0.12017252,
,,-0.061908845,,0.05419293,
,,-0.041678187,,0.05943028,
,,-0.035114165,,-0.027008565,
,,0.039948564,,-0.16015537,
,,-0.04771502,,0.16032077,
,,0.05602335,,-0.16897574,
,,-0.028829912,,-0.097556435,
,,0.057637747,,-0.10018058,
,,-0.045793157,,0.040724944,
,,-0.029705478,,-0.014474073,
,,-0.07953344,,0.07401956,
,,-0.03599011,,-0.037954394,
,,-0.03653244,,-0.08898176,
,,0.0133325495,,-0.10787835,
,,-0.004351272,,0.1857088,
,,-0.036926046,,-0.02310886,
,,-0.031666186,,0.13642715,
,,-0.07232277,,0.0901834,
,,-0.05144413,,-0.13446029,
,,-0.012963199,,0.02811938,
,,0.041768607,,0.14090745,
,,0.02722161,,0.087251574,
,,0.030747803,,0.18397221,
,,-0.029924965,,-0.012711537,
,,-0.0067388774,,-0.104489945,
,,0.0402806,,-0.0356988,
,,-0.06268562,,-0.05059441,
,,-0.037910618,,-0.0645848,
,,-0.005780201,,0.002967848,
,,-0.032320283,,0.13052005,
,,0.0077575296,,0.01712959,
,,0.040075596,,0.15000983,
,,-0.01931385,,0.10451681,
,,-0.053845335,,-0.08939669,
,,-0.11567459,,-0.06646871,
,,-0.041843254,,0.20625032,
,,-0.018000588,,-0.007889753,
,,0.02240222,,-0.057592697,
,,0.02438962,,0.06768672,
,,-0.017756723,,-0.07038617,
,,-0.010042029,,-0.0045363693,
,,0.024595225,,-0.09397783,
,,-0.029668128,,-0.057370696,
,,-0.05323557,,0.049361248,
,,-0.0694253,,-0.040275373,
,,0.006280397,,0.11769981,
,,-0.047777276,,-0.08481153,
,,-0.007287353,,0.08299635,
,,-0.089784205,,0.021849861,
,,-0.00015577894,,-0.039999414,
,,-0.058791302,,-0.055166394,
,,-0.04928681,,-0.13471915,
,,0.0058374223,,0.057201646,
,,0.007880135,,-0.06053963,
,,0.011000821,,-0.019083664,
,,0.010973291,,-0.023248356,
,,-0.0018727446,,0.09475748,
,,-0.047844097,,0.108745,
,,-0.096053675,,-0.072475396,
,,0.0007068456,,-0.047016956,
,,0.0064826272,,-0.08315281,
,,-0.016863314,,-0.06890676,
,,-0.010014098,,0.08655006,
,,-0.06305527,,-0.04878888,
,,-0.00048610635,,0.07430704,
,,-0.06732187,,-0.07869222,
,,-0.097412646,,-0.022073895,
,,-0.003768248,,0.035620686,
,,0.04508012,,-0.16314627,
,,0.023822572,,0.07333638,
,,0.022236373,,0.1456626,
,,0.028633956,,-0.1131812,
,,-0.04258265,,-0.050596423,
,,-0.0055708745,,-0.009323615,
,,0.026494231,,0.11342412,
,,-0.0033089798,,0.10101695,
,,0.0473144,,0.13231178,
,,-0.05455276,,0.0073065553,
,,-0.004692248,,-0.07494386,
,,0.06281922,,-0.056577705,
,,-0.015559604,,0.004076288,
,,0.061767858,,-0.108608104,
,,0.009153847,,-0.054358758,
,,-0.08418618,,-0.12843277,
,,0.0038549372,,0.009637296,
,,-0.014080649,,-0.037849236,
,,-0.038139895,,0.061327096,
,,-0.03684787,,0.07026474,
,,-0.01114072,,0.12174042,
,,0.022419233,,0.1008032,
,,-0.06895183,,0.04505016,
,,-0.09578099,,0.022469997,
,,-0.023177333,,-0.106004745,
,,0.059230037,,-0.10819222,
,,-0.00281988,,-0.038933724,
,,-0.047388792,,-0.064141706,
,,-0.02816431,,0.025969323,
,,0.015776683,,-0.017668197,
,,0.02867097,,0.10285765,
,,-0.067893825,,0.01117503,
,,-0.015769128,,-0.01916713,
,,-0.02716648,,-0.06974241,
,,-0.040571608,,0.17033452,
,,0.020633565,,-0.035124116,
,,0.058789596,,0.11505097,
,,-0.0061711995,,-0.05872361,
,,-0.08446189,,0.05817834,
,,0.011753041,,-0.09050621,
,,-0.053303674,,0.03277391,
,,-0.03117656,,0.060237102,
,,-0.0108174635,,-0.06788046,
,,0.04097295,,-0.14454599,
,,0.025399324,,-0.062409006,
,,-0.002698302,,0.08973523,
,,-0.08540723,,0.05620593,
,,0.040611707,,-0.064723045,
,,0.034812644,,0.008175599,
,,-0.022763265,,-0.045489423,
,,0.011286255,,-0.019137,
,,-0.03250548,,-0.008260468,
,,-0.027602632,,-0.07697133,
,,-0.018756548,,0.061915655,
,,-0.034401882,,-0.058044285,
,,0.0016302536,,0.07831323,
,,-0.040558428,,-0.028916882,
,,0.022961149,,-0.02777266,
,,-0.025589488,,0.071305856,
,,-0.048426967,,-0.097807966,
,,0.04407265,,0.1458665,
,,-0.043325797,,0.03909783,
,,-0.013012407,,0.054123655,
,,0.027601263,,0.092651255,
,,0.018151967,,0.08883124,
,,0.019453468,,0.10233357,
,,0.035181977,,-0.0128679685,
,,-0.05347525,,-0.0044817273,
,,0.047388677,,-0.04764519,
,,0.057083067,,-0.08405422,
,,-0.03755775,,0.1728479,
,,0.023774201,,-0.055604775,
,,0.048996914,,-0.0981812,
,,0.022729848,,-0.07246053,
,,0.03968136,,-0.016142726,
,,-0.013904939,,0.14755096,
,,-0.0608291,,-0.14266853,
,,-0.048865236,,-0.10566708,
,,0.002530072,,0.10683234,
,,0.021908196,,-0.08440658,
,,0.005466485,,-0.16908008,
,,-0.059009574,,-0.102344714,
,,0.03372791,,-0.15577114,
,,0.05319215,,0.005628114,
,,0.038645424,,0.045368645,
,,-0.029499942,,-0.008500805,
,,0.026211383,,-0.0021421018,
,,-0.06243046,,0.07462922,
,,0.0084199365,,-0.052598853,
,,-0.013613927,,0.06949984,
,,0.0027909419,,-0.006033341,
,,0.033689804,,0.15720251,
,,-0.06594811,,-0.08238096,
,,0.052946486,,-0.07830567,
,,0.060864724,,0.07900992,
,,-0.025741152,,0.08958305,
,,0.010865355,,0.06497848,
,,0.039905325,,-0.037649997,
,,0.03507078,,0.12109645,
,,-0.03886214,,0.09806429,
,,-0.0038741734,,0.025172606,
,,0.017254295,,0.1048276,
,,0.050254494,,0.03311402,
,,0.021648351,,-0.012902028,
,,-0.015313145,,-0.08153752,
,,-0.052970555,,-0.01340348,
,,0.017431054,,-0.029224843,
,,0.038251527,,-0.029656738,
,,0.0076881605,,-0.0016641098,
,,-0.12607498,,0.044333387,
,,-0.034848567,,0.090868235,
,,-0.011250041,,0.093867,
,,-0.010481955,,-0.053379577,
,,0.004148995,,0.13485304,
,,-0.052826308,,0.011908027,
,,0.060299154,,0.10225513,
,,-0.07934445,,-0.10576379,
,,-0.04550805,,0.08863236,
,,-0.043434322,,0.021137912,
,,0.025613029,,-0.02283378,
,,-0.0038543933,,0.038742553,
,,-0.014661687,,-0.11359843,
,,-0.03519204,,0.10642084,
,,0.055383027,,0.0030216977,
,,0.05475805,,0.041695364,
,,0.0056102774,,0.08047397,
,,0.029309373,,0.08276997,
,,0.026087027,,0.027693657,
,,0.033139754,,-0.17387307,
,,-0.053001218,,0.08040992,
,,0.03549859,,-0.082659036,
,,0.024112806,,,
,,-0.011691469,,,
,,0.04015368,,,
,,-0.028669877,,,
,,0.030368373,,,
,,0.0031065627,,,
,,-0.019926244,,,
,,-0.050979555,,,
,,0.01213487,,,
,,-0.04261457,,,
,,0.054956816,,,
,,-0.022445759,,,
,,0.036961302,,,
,,0.04917255,,,
,,-0.035248302,,,
,,0.051173523,,,
,,-0.022217494,,,
,,-0.05298651,,,
,,0.012377848,,,
,,-0.04493694,,,
,,-0.061260697,,,
,,-0.0406549,,,
,,0.017280357,,,
,,0.038190015,,,
,,0.06171282,,,
,,-0.0013931048,,,
,,0.029765785,,,
,,-0.00074364827,,,
,,-0.049034324,,,
,,-0.04885988,,,
,,-0.022977678,,,
,,0.037953738,,,
,,0.060724683,,,
,,-0.017860215,,,
,,8.280117e-05,,,
,,0.052046336,,,
,,-0.019493038,,,
,,0.0077531454,,,
,,-0.058622293,,,
,,0.03284598,,,
,,-0.0019263136,,,
,,0.058133855,,,
,,-0.039783232,,,
,,-0.058962427,,,
,,0.04604873,,,
,,-0.029632403,,,
,,-0.020208005,,,
,,0.038100347,,,
,,-0.0008548587,,,
,,0.04237498,,,
,,-0.030844474,,,
,,0.029658949,,,
,,0.059128724,,,
,,0.015382186,,,
,,0.013612753,,,
,,0.053367537,,,
,,0.036841314,,,
,,0.054315165,,,
,,0.022939788,,,
,,-0.04314148,,,
,,0.040158745,,,
,,0.050935913,,,
,,-0.02729599,,,
,,-0.019069064,,,
,,-0.016548308,,,
,,-0.057102982,,,
,,0.06336477,,,
,,-0.029342515,,,
,,-0.017849408,,,
,,-0.02033531,,,
,,0.031180477,,,
,,0.056824017,,,
,,-0.039329827,,,
,,0.03992451,,,
,,0.03538547,,,
,,-0.0055348454,,,
,,-0.058639158,,,
,,-0.025456984,,,
,,0.04536395,,,
,,0.051167283,,,
,,-0.004596125,,,
,,0.0121603655,,,
,,0.017764937,,,
,,0.0753727,,,
,,-0.0012381172,,,
,,0.008487254,,,
,,-0.030939074,,,
,,0.071737535,,,
,,-0.0027446556,,,
,,0.030177645,,,
,,0.023868352,,,
,,0.043817952,,,
,,0.056136366,,,
,,0.05630796,,,
,,0.02335559,,,
,,0.005674767,,,
,,0.032510865,,,
,,-0.03010085,,,
,,0.051423363,,,
,,-0.0064154873,,,
,,0.069036014,,,
,,0.07314055,,,
,,-0.032746717,,,
,,-0.021064693,,,
,,-0.013729602,,,
,,-0.008112951,,,
,,-0.020379279,,,
,,0.010723356,,,
,,0.040900752,,,
,,-0.06322375,,,
,,-0.00951172,,,
,,0.014464791,,,
,,0.009639206,,,
,,0.008171473,,,
,,-0.05206694,,,
,,0.019394418,,,
,,-0.035438016,,,
,,-0.08220173,,,
,,0.022615757,,,
,,-0.032940168,,,
,,0.040101137,,,
,,0.019841699,,,
,,-0.03815645,,,
,,0.025941696,,,
,,-0.024709886,,,
,,-0.07417299,,,
,,-0.016160002,,,
,,0.030365173,,,
,,0.0019298382,,,
,,0.015057248,,,
,,0.04615337,,,
,,0.04967701,,,
,,-0.02535644,,,
,,0.0036815216,,,
,,-0.024776602,,,
,,-0.0037213732,,,
,,-0.056916855,,,
,,-0.040051356,,,
,,0.037630696,,,
,,0.020398315,,,
,,-0.0617914,,,
,,-0.008588128,,,
,,-0.0553835,,,
,,0.021899926,,,
,,0.0029104424,,,
,,0.031405583,,,
,,0.050906878,,,
,,0.004668519,,,
,,0.010129607,,,
,,0.07854277,,,
,,-0.062498715,,,
,,-0.05259547,,,
,,-0.038593706,,,
,,0.06482572,,,
,,-0.021323035,,,
,,0.010778273,,,
,,-0.031690873,,,
,,0.019336436,,,
,,0.022616595,,,
,,0.063666105,,,
,,0.06614185,,,
,,-0.032200217,,,
,,0.0022864442,,,
,,-0.03512995,,,
,,-0.035111543,,,
,,0.051248476,,,
,,0.073307894,,,
,,0.03795921,,,
,,-0.023573382,,,
,,0.037887312,,,
,,0.0054938076,,,
,,0.049947724,,,
,,0.030559216,,,
,,-0.012091308,,,
,,0.049123835,,,
,,-0.0488304,,,
,,-0.007868686,,,
,,-0.0107575,,,
,,-0.054545924,,,
,,-0.028900804,,,
,,0.02470371,,,
,,0.046242766,,,
,,0.004901928,,,
,,-0.06097708,,,
,,0.03686754,,,
,,0.04087162,,,
,,0.0117398845,,,
,,0.004839179,,,
,,-0.021708809,,,
,,0.002669017,,,
,,-0.025344301,,,
,,0.022149215,,,
,,-0.0064918646,,,
,,0.035367105,,,
,,0.057673607,,,
,,0.056241143,,,
,,0.033888064,,,
,,0.016413724,,,
,,0.007995095,,,
,,-0.038320284,,,
,,-0.0315982,,,
,,-0.0032711173,,,
,,0.03936138,,,
,,-0.034521133,,,
,,0.008024936,,,
,,-0.008645843,,,
,,-0.06765244,,,
,,-0.038339425,,,
,,-0.039077982,,,
,,0.008295004,,,
,,0.0050849896,,,
,,-0.060203057,,,
,,0.007542329,,,
,,0.0572549,,,
,,0.036063444,,,
,,-0.0028238131,,,
,,-0.020562666,,,
,,0.019883705,,,
,,-0.0045160986,,,
,,0.050170273,,,
,,0.07925457,,,
,,0.028533991,,,
,,-0.029000001,,,
,,-0.0174921,,,
,,0.027638495,,,
,,-0.019968156,,,
,,-0.05403635,,,
,,-0.0065956856,,,
,,0.043963168,,,
,,0.038242746,,,
,,0.0021932782,,,
,,-0.047854364,,,
,,0.055440668,,,
,,0.03952225,,,
,,-0.005547765,,,
,,-0.044194423,,,
,,-0.014700023,,,
,,0.0136202695,,,
,,0.019517342,,,
,,-0.03399314,,,
,,-0.032797296,,,
,,-0.061603975,,,
,,0.019733058,,,
,,-0.08576033,,,
,,0.05449682,,,
,,-0.004522764,,,
,,-0.038129903,,,
,,-0.03795519,,,
,,-0.05260161,,,
,,0.02146624,,,
,,0.0321183,,,
,,-0.05120271,,,
,,-0.0021737106,,,
,,0.03932755,,,
,,0.06806593,,,
,,-0.010937998,,,
,,-0.053516906,,,
,,-0.04878577,,,
,,-0.04437603,,,
,,-0.019491833,,,
,,-0.020637875,,,
,,0.040246446,,,
,,0.0208744,,,
,,0.011511446,,,
,,-0.05582615,,,
,,-0.0019411141,,,
,,0.03547817,,,
,,0.02059048,,,
,,-0.020751309,,,
,,-0.04967573,,,
,,0.010179744,,,
,,0.058239013,,,
,,0.024202699,,,
,,0.033218425,,,
,,-0.032392688,,,
,,0.058243617,,,
,,0.010818904,,,
,,-0.057328492,,,
,,-0.0054121376,,,
,,-0.05205965,,,
,,-0.058997676,,,
,,0.024902174,,,
,,0.010831691,,,
,,-0.01976877,,,
,,0.032078743,,,
,,0.04168469,,,
,,-0.024790412,,,
,,-0.036666077,,,
,,-0.031837456,,,
,,-0.023947097,,,
,,0.03774523,,,
,,-0.004868607,,,
,,0.008074415,,,
,,-0.03412945,,,
,,-0.008361216,,,
,,-0.0062072733,,,
,,0.048095223,,,
,,-0.012134865,,,
,,0.008944023,,,
,,0.053679787,,,
,,0.029197458,,,
,,-0.008717611,,,
,,0.030099276,,,
,,0.034411814,,,
,,-0.005555816,,,
,,-0.04604532,,,
,,0.038143225,,,
,,-0.041898463,,,
,,0.004000648,,,
,,-0.047521714,,,
,,0.026976084,,,
,,0.0032477248,,,
,,-0.039806288,,,
,,0.04728433,,,
,,-0.062940784,,,
,,0.050235208,,,
,,-0.045660365,,,
,,0.03747266,,,
,,0.040335555,,,
,,-0.047184385,,,
,,0.052093644,,,
,,0.060196668,,,
,,-0.04045449,,,
,,0.067582294,,,
,,-0.049357794,,,
,,-0.050760057,,,
,,-0.01154373,,,
,,-0.062625095,,,
,,-0.05399935,,,
,,-0.050080243,,,
,,0.03706924,,,
,,0.08363804,,,
,,-0.019153478,,,
,,-0.09713882,,,
,,-2.7733447e-05,,,
,,0.016432507,,,
,,-0.020029144,,,
,,0.00893202,,,
,,-0.02278802,,,
,,0.0059736646,,,
,,-0.041482326,,,
,,0.08734387,,,
,,0.01357083,,,
,,-0.052502822,,,
,,-0.006965596,,,
,,-0.02228471,,,
,,0.0470671,,,
,,-0.02963285,,,
,,0.0644036,,,
,,-0.028661303,,,
,,-0.029357897,,,
,,-0.006682663,,,
,,0.037893653,,,
,,0.00945528,,,
,,0.08713346,,,
,,-0.011199706,,,
,,-0.015211952,,,
,,-0.008538975,,,
,,0.01693336,,,
,,0.06297581,,,
,,0.0622756,,,
,,-0.0067979996,,,
,,-0.026993807,,,
,,0.060631115,,,
,,0.0104415575,,,
,,0.04022691,,,
,,-0.03577902,,,
,,-0.04096785,,,
,,0.035883646,,,
,,-0.0533663,,,
,,0.020032462,,,
,,0.07499808,,,
,,0.002211078,,,
,,0.010542291,,,
,,0.07267873,,,
,,0.03567009,,,
,,-0.013671996,,,
,,-0.04881342,,,
,,0.005917261,,,
,,-0.05536237,,,
,,-0.0313631,,,
,,0.004973537,,,
,,0.06908944,,,
,,-0.02722118,,,
,,0.025964344,,,
,,-0.019262332,,,
,,0.041160684,,,
,,0.05183543,,,
,,-0.030364348,,,
,,-0.03898771,,,
,,0.007969034,,,
,,-0.008257654,,,
,,0.0028123127,,,
,,0.05501893,,,
,,0.014891157,,,
,,0.014304672,,,
,,0.04781386,,,
,,0.034603383,,,
,,0.00014756543,,,
,,0.0573537,,,
,,0.0030380199,,,
,,0.008805449,,,
,,0.061162528,,,
,,0.045985457,,,
,,-0.029350724,,,
,,0.058417257,,,
,,0.06710008,,,
,,0.08447523,,,
,,0.04690643,,,
,,-0.0025448615,,,
,,0.06950886,,,
,,0.034519978,,,
,,0.009252077,,,
,,0.029128429,,,
,,0.06513266,,,
,,0.044769954,,,
,,-0.02730704,,,
,,0.021654569,,,
,,0.034156542,,,
,,0.028344914,,,
,,0.011509041,,,
,,-0.03463676,,,
,,-0.03483608,,,
,,-0.055497892,,,
,,0.012425461,,,
,,0.011978039,,,
,,0.014976811,,,
,,0.07340028,,,
,,0.012060836,,,
,,-0.04347077,,,
,,-0.011688569,,,
,,0.002714891,,,
,,-0.015960762,,,
,,0.083491474,,,
,,0.09564406,,,
,,0.0744917,,,
,,0.022670496,,,
,,0.021481743,,,
,,-0.018037,,,
,,0.010382285,,,
,,0.043197416,,,
,,-0.08904253,,,
,,-0.07001035,,,
,,-0.033462472,,,
,,0.0005894691,,,
,,0.056938045,,,
,,-0.041198753,,,
,,0.029820342,,,
,,-0.036280077,,,
,,0.024493804,,,
,,-0.05734449,,,
,,-0.026615273,,,
,,-0.022652186,,,
,,-0.006501919,,,
,,0.04501278,,,
,,0.007287843,,,
,,-0.02849635,,,
,,0.05811744,,,
,,-0.019389885,,,
,,0.05537815,,,
,,0.0003609203,,,
,,0.031353276,,,
,,0.057569303,,,
,,-0.034849882,,,
,,0.054280955,,,
,,0.01612154,,,
,,0.009792684,,,
,,0.015511314,,,
,,0.02192498,,,
,,0.034876976,,,
,,0.09737269,,,
,,0.07763194,,,
,,0.055375896,,,
,,0.039828155,,,
,,0.025184043,,,
,,-0.009947458,,,
,,-0.054116495,,,
,,0.018589957,,,
,,0.056992248,,,
,,0.0762029,,,
,,0.06250281,,,
,,4.3613785e-05,,,
,,0.062225826,,,
,,0.009411795,,,
,,-0.024414767,,,
,,-0.040702574,,,
,,-0.037575986,,,
,,0.0034300114,,,
,,-0.009815874,,,
,,-0.011158293,,,
,,0.06514699,,,
,,0.032736525,,,
,,-0.008131316,,,
,,-0.014388953,,,
,,0.028511012,,,
,,-0.042783372,,,
,,-0.07015311,,,
,,0.049599454,,,
,,0.11240607,,,
,,0.04013902,,,
,,0.004760669,,,
,,0.0040705428,,,
,,-0.04951771,,,
,,0.034365207,,,
,,-0.045407005,,,
,,-0.057140026,,,
,,0.05880857,,,
,,0.024185281,,,
,,0.038280103,,,
,,0.014851396,,,
,,0.012176239,,,
,,0.0421294,,,
,,-0.023113808,,,
,,0.04883654,,,
,,0.0434871,,,
,,-0.009438525,,,
,,0.023078635,,,
,,0.018179944,,,
,,-0.022220552,,,
,,0.01501118,,,
,,-0.033158123,,,
,,-0.003864377,,,
,,0.053734966,,,
,,0.014304061,,,
,,-0.012061156,,,
,,0.04060276,,,
,,0.01140672,,,
,,-0.02231383,,,
,,-0.054615922,,,
,,0.026048156,,,
,,0.036532797,,,
,,-0.022820882,,,
,,0.057026364,,,
,,0.0073660794,,,
,,-0.010762084,,,
,,0.05669674,,,
,,0.021975365,,,
,,0.009219615,,,
,,-0.0054630465,,,
,,-0.00347877,,,
,,0.06110035,,,
,,-0.041735,,,
,,0.017718434,,,
,,0.032827318,,,
,,-0.006999372,,,
,,-0.04844169,,,
,,0.03304628,,,
,,-0.02374527,,,
,,0.0647475,,,
,,0.035906494,,,
,,-0.010578301,,,
,,0.024217036,,,
,,0.016550183,,,
,,0.005453902,,,
,,0.06530207,,,
,,0.024074337,,,
,,-0.015809132,,,
,,-0.04584242,,,
,,0.032328956,,,
,,-0.039829638,,,
,,0.0075003696,,,
,,0.040327158,,,
,,-0.025946468,,,
,,0.05227756,,,
,,0.044752847,,,
,,0.005318136,,,
,,-0.019370623,,,
,,0.023057112,,,
,,-0.00227141,,,
,,0.04218136,,,
,,0.056377966,,,
,,0.02160432,,,
,,0.05821424,,,
,,-0.028410958,,,
,,-0.033119135,,,
,,0.028086824,,,
,,-0.0029454578,,,
,,-0.0661344,,,
,,-0.01892702,,,
,,-0.04493486,,,
,,-0.062316135,,,
,,-0.06662881,,,
,,0.05806264,,,
,,-0.010245033,,,
,,0.037587903,,,
,,-0.035056464,,,
,,-0.0014216723,,,
,,-0.07443483,,,
,,-0.09634412,,,
,,-0.020415211,,,
,,0.07184256,,,
,,-0.018951414,,,
,,0.023708224,,,
,,0.0097493315,,,
,,-0.017860947,,,
,,-0.03347533,,,
,,-0.04299007,,,
,,-0.026227195,,,
,,0.014976183,,,
,,0.014129387,,,
,,8.938617e-05,,,
,,0.08293889,,,
,,0.0074241636,,,
,,0.05560046,,,
,,-0.0356919,,,
,,0.0013855582,,,
,,0.053494304,,,
,,0.0006703174,,,
,,-0.0012847087,,,
,,-0.0050169053,,,
,,0.027783511,,,
,,0.06863108,,,
,,0.057759926,,,
,,0.03208913,,,
,,-0.05620179,,,
,,-0.053968463,,,
,,0.00016770363,,,
,,0.025523795,,,
,,-0.05935612,,,
,,0.044015028,,,
,,0.02092383,,,
,,0.023970088,,,
,,-0.049184218,,,
,,0.014877528,,,
,,-0.049207307,,,
,,-0.045826837,,,
,,-0.05155519,,,
,,0.009821263,,,
,,-0.0026965998,,,
,,0.01143433,,,
,,-0.028376551,,,
,,0.012340629,,,
,,0.03620705,,,
,,-0.0039362353,,,
,,-0.058958348,,,
,,0.032823477,,,
,,-0.040983606,,,
,,-0.02174739,,,
,,0.0381396,,,
,,0.025876757,,,
,,-0.02585973,,,
,,0.05926744,,,
,,-0.020410366,,,
,,-0.032391302,,,
,,-0.012809575,,,
,,-0.04412388,,,
,,0.015212781,,,
,,-0.048432287,,,
,,-0.0439858,,,
,,0.05747374,,,
,,0.0471429,,,
,,0.020565413,,,
,,-0.055563033,,,
,,0.010943952,,,
,,-0.0384562,,,
,,-0.05842382,,,
,,-0.0044826693,,,
,,-0.00021862297,,,
,,0.015925186,,,
,,-0.01462059,,,
,,-0.028921813,,,
,,0.007614424,,,
,,-0.02304094,,,
,,-0.045486216,,,
,,0.006243041,,,
,,-0.004138253,,,
,,0.037973795,,,
,,-0.0012280917,,,
,,0.021891449,,,
,,0.0027162628,,,
,,0.009251523,,,
,,0.008240922,,,
,,-0.035080377,,,
,,0.020747313,,,
,,-0.023565864,,,
,,-0.07416528,,,
,,0.0047203996,,,
,,0.050706368,,,
,,0.062045854,,,
,,0.008418237,,,
,,0.014110944,,,
,,-0.042921342,,,
,,-0.115390554,,,
,,-0.056571327,,,
,,0.09275407,,,
,,-0.015611338,,,
,,0.0020365778,,,
,,0.00871476,,,
,,0.028275669,,,
,,-0.017890682,,,
,,0.04833353,,,
,,0.06399676,,,
,,0.0074943923,,,
,,-0.042080216,,,
,,0.016807392,,,
,,0.0020943342,,,
,,0.034230508,,,
,,-0.023107842,,,
,,0.048768036,,,
,,0.023942553,,,
,,0.01994546,,,
,,0.0464532,,,
,,-0.03723322,,,
,,-0.024174688,,,
,,-0.051588498,,,
,,-0.014039666,,,
,,-0.051726535,,,
,,0.036399473,,,
,,0.051390447,,,
,,-0.067932084,,,
,,0.024224406,,,
,,0.00035765718,,,
,,-0.031220283,,,
,,-0.045367908,,,
,,-0.049964603,,,
,,0.002000341,,,
,,-0.010776714,,,
,,0.0043749786,,,
,,-0.043297987,,,
,,-0.0039135325,,,
,,0.0336053,,,
,,0.03271953,,,
,,-0.034249924,,,
,,-0.006639605,,,
,,0.0050150114,,,
,,-0.015551487,,,
,,-0.06877963,,,
,,0.018212594,,,
,,0.022600144,,,
,,-0.0099200895,,,
,,0.027230557,,,
,,-0.08704564,,,
,,0.03414237,,,
,,0.054039955,,,
,,0.032782834,,,
,,0.04006329,,,
,,0.062047027,,,
,,-0.040623024,,,
,,-0.0019954625,,,
,,-0.061204005,,,
,,0.042848624,,,
,,0.0700392,,,
,,0.1028783,,,
,,0.013555642,,,
,,0.05495003,,,
,,-0.025480794,,,
,,-0.018740527,,,
,,0.082365714,,,
,,0.06543727,,,
,,-0.007981282,,,
,,-0.028367022,,,
,,-0.019513542,,,
,,-0.06834708,,,
,,-0.046388585,,,
,,0.01046976,,,
,,0.017183796,,,
,,-0.034793954,,,
,,-0.05678683,,,
,,-0.027017536,,,
,,0.06871402,,,
,,0.055452198,,,
,,0.035352543,,,
,,-0.024603823,,,
,,0.00466547,,,
,,-0.0030856994,,,
,,0.025840618,,,
,,0.008755461,,,
,,-0.009852576,,,
,,-0.034871534,,,
,,0.0135716535,,,
,,0.023837795,,,
,,-0.014148779,,,
,,0.0048781754,,,
,,0.0003472624,,,
,,0.036252838,,,
,,0.05497775,,,
,,-0.053267065,,,
,,-0.05966833,,,
,,0.04410028,,,
,,0.030380718,,,
,,0.055195235,,,
,,-0.042638388,,,
,,-0.03535096,,,
,,0.025455335,,,
,,0.0074869436,,,
,,0.01849074,,,
,,0.007868985,,,
,,-0.04170178,,,
,,0.011126356,,,
,,-0.024695562,,,
,,-0.023754368,,,
,,-0.009764245,,,
,,-0.03840832,,,
,,0.015576808,,,
,,0.034434628,,,
,,-0.07535889,,,
,,-0.010225289,,,
,,-0.01763052,,,
,,-0.053983252,,,
,,-0.03535962,,,
,,-0.03450268,,,
,,0.035093397,,,
,,-0.039729256,,,
,,0.0062901014,,,
,,0.014719055,,,
,,-0.006428124,,,
,,-0.058722876,,,
,,0.015924279,,,
,,0.0031435816,,,
,,0.015975142,,,
,,-0.045059346,,,
,,0.04635924,,,
,,-0.00988389,,,
,,-0.03837284,,,
,,0.029246053,,,
,,0.015695939,,,
,,-0.0548907,,,
,,-0.023021577,,,
,,-0.03126599,,,
,,-0.06367068,,,
,,0.019209998,,,
,,0.016591482,,,
,,-0.02901997,,,
,,0.037488498,,,
,,-0.012699585,,,
,,0.05231869,,,
,,0.019890763,,,
,,-0.00091940264,,,
,,-0.016079664,,,
,,-0.041380156,,,
,,0.05037209,,,
,,0.018878503,,,
,,-0.013062495,,,
,,-0.042511143,,,
,,-0.055716213,,,
,,0.027744448,,,
,,-0.034157928,,,
,,-0.08065716,,,
,,-0.04986881,,,
,,-0.00168746,,,
,,0.025498465,,,
,,-0.029649204,,,
,,-0.009701366,,,
,,-0.0068282057,,,
,,-0.015344953,,,
,,-0.06610292,,,
,,0.0073428466,,,
,,-0.036008283,,,
,,0.041807316,,,
,,0.012199699,,,
,,-0.05816439,,,
,,-0.008797688,,,
,,0.018268121,,,
,,-0.04571239,,,
,,-0.014611196,,,
,,-0.024720052,,,
,,0.027571067,,,
,,0.025471866,,,
,,0.031802587,,,
,,-0.091749705,,,
,,-0.09526999,,,
,,-0.015947707,,,
,,-0.01598173,,,
,,0.035480373,,,
,,-0.0036812034,,,
,,-0.0334492,,,
,,-0.01120375,,,
,,-0.020436553,,,
,,-0.06123378,,,
,,-0.044743802,,,
,,0.04602321,,,
,,0.059724957,,,
,,0.0165795,,,
,,-0.01509867,,,
,,0.046424042,,,
,,-0.012779521,,,
,,0.042621832,,,
,,0.040903974,,,
,,-0.04876533,,,
,,-0.013127955,,,
,,-0.0430743,,,
,,0.049205553,,,
,,-0.0730373,,,
,,-0.033347983,,,
,,-0.025487086,,,
,,-0.015143454,,,
,,0.016967723,,,
,,0.019144801,,,
,,-0.054439113,,,
,,-0.030633226,,,
,,0.013573749,,,
,,-0.003106044,,,
,,-0.073227,,,
,,-0.02108211,,,
,,-0.0061638,,,
,,-0.018865645,,,
,,0.017285703,,,
,,-0.018478265,,,
,,0.002569286,,,
,,0.06340133,,,
,,0.052410025,,,
,,0.0070099607,,,
,,0.06239112,,,
,,-0.014184082,,,
,,0.01618286,,,
,,0.05917654,,,
,,0.056718886,,,
,,-0.015372982,,,
,,0.052827597,,,
,,-0.016302973,,,
,,0.018366473,,,
,,0.010599427,,,
,,-0.0021273748,,,
,,-0.030217355,,,
,,0.05021621,,,
,,-0.028985897,,,
,,0.025856797,,,
,,-0.02760731,,,
,,-0.05047977,,,
,,0.015663983,,,
,,0.051075585,,,
,,-0.0007455591,,,
,,-0.018851519,,,
,,0.030417215,,,
,,-0.03145918,,,
,,0.053463075,,,
,,0.044985272,,,
,,0.06343688,,,
,,0.0555879,,,
,,-0.046915803,,,
,,0.024625907,,,
,,0.044809096,,,
,,0.020924252,,,
,,0.012585332,,,
,,0.054018285,,,
,,-0.020978466,,,
,,-0.040217783,,,
,,0.09166114,,,
,,-0.008502707,,,
,,0.045938794,,,
,,-0.00051667163,,,
,,-0.019013241,,,
,,-0.02841949,,,
,,-0.04106922,,,
,,-0.010438524,,,
,,0.065106176,,,
,,-0.052883446,,,
,,0.035798162,,,
,,-0.041291345,,,
,,-0.05470281,,,
,,-0.022546785,,,
,,0.036182594,,,
,,-0.030370776,,,
,,0.04931138,,,
,,-0.04955683,,,
,,-0.04285117,,,
,,-0.024769768,,,
,,0.036684215,,,
,,-0.035561427,,,
,,-0.039062973,,,
,,0.004489717,,,
,,-0.037164938,,,
,,0.0116005475,,,
,,0.03149075,,,
,,0.025669862,,,
,,-0.045074906,,,
,,0.054731518,,,
,,0.052824024,,,
,,0.055306606,,,
,,0.02047572,,,
,,-0.03960586,,,
,,-0.022203231,,,
,,0.009112186,,,
,,-0.044867337,,,
,,-0.046376806,,,
,,-0.059292194,,,
,,0.043996695,,,
,,-0.03403061,,,
,,0.015404206,,,
,,0.0654657,,,
,,0.00015501428,,,
,,-0.04329381,,,
,,0.008082636,,,
,,-0.021419154,,,
,,0.0010657038,,,
,,0.003203488,,,
,,-0.03666774,,,
,,0.01814429,,,
,,0.017355168,,,
,,-0.0052149515,,,
,,0.005334082,,,
,,-0.05069562,,,
,,-0.050641637,,,
,,-0.040037885,,,
,,0.038113892,,,
,,-0.05013998,,,
,,-0.0029300926,,,
,,0.055464312,,,
,,0.04455449,,,
,,0.043018702,,,
,,0.017980618,,,
,,0.0729741,,,
,,0.028746875,,,
,,0.06327557,,,
,,0.018771539,,,
,,-0.004012687,,,
,,0.0030743768,,,
,,-0.010499305,,,
,,0.014948292,,,
,,0.057097197,,,
,,0.01038029,,,
,,0.050997216,,,
,,-0.008451576,,,
,,-0.001425111,,,
,,-0.029913,,,
,,0.01599539,,,
,,-0.015100154,,,
,,-0.039396774,,,
,,-0.06753629,,,
,,0.0008666981,,,
,,-0.055649303,,,
,,-0.043787025,,,
,,0.011537748,,,
,,0.038581334,,,
,,0.047668494,,,
,,0.041030355,,,
,,0.042791143,,,
,,0.035221137,,,
,,0.0030991205,,,
,,-0.035749998,,,
,,0.0008418343,,,
,,-0.062292263,,,
,,0.007054297,,,
,,-0.034614246,,,
,,-0.033704642,,,
,,0.007832127,,,
,,0.020809418,,,
,,-0.03898318,,,
,,0.011383108,,,
,,-0.049324654,,,
,,-0.026584283,,,
,,-0.0042361226,,,
,,0.054472845,,,
,,-0.05294482,,,
,,0.016627492,,,
,,0.04071384,,,
,,0.029506506,,,
,,0.0023439913,,,
,,-0.029084736,,,
,,-0.025827939,,,
,,-0.05536552,,,
,,0.013799937,,,
,,-0.013520573,,,
,,-0.005863651,,,
,,0.017831048,,,
,,0.044740435,,,
,,-0.02284706,,,
,,-0.030993223,,,
,,-0.053539462,,,
,,0.036675874,,,
,,0.04401071,,,
,,-0.054460898,,,
,,-0.0069575855,,,
,,0.053138454,,,
,,-0.03855735,,,
,,0.012557351,,,
,,-0.023707813,,,
,,0.04397394,,,
,,0.025739647,,,
,,0.028383942,,,
,,0.007972589,,,
,,0.030436058,,,
,,0.025717605,,,
,,-0.0260644,,,
,,0.006415824,,,
,,0.007320331,,,
,,0.0264056,,,
,,-0.028318325,,,
,,0.051471125,,,
,,0.05031657,,,
,,-0.031039087,,,
,,0.051965844,,,
,,0.035746187,,,
,,-0.015461557,,,
,,-0.055619005,,,
,,0.025646009,,,
,,-0.0021712782,,,
,,0.061050545,,,
,,-0.0043173754,,,
,,-0.012079113,,,
,,-0.021456804,,,
,,-0.0061174524,,,
,,0.073185585,,,
,,-0.029063145,,,
,,-0.016138293,,,
,,0.046157494,,,
,,-0.0055846456,,,
,,-0.052326474,,,
,,-0.006455944,,,
,,-0.004646922,,,
,,0.053438164,,,
,,-0.075117536,,,
,,0.0073104054,,,
,,-0.018065536,,,
,,-0.033292186,,,
,,0.0072605526,,,
,,0.009343238,,,
,,0.030282483,,,
,,-0.035255592,,,
,,-0.016364027,,,
,,-0.062937334,,,
,,0.034075513,,,
,,0.046790168,,,
,,-0.039346743,,,
,,-0.00208446,,,
,,0.018066939,,,
,,-0.05632859,,,
,,0.01759347,,,
,,0.043417305,,,
,,0.038774636,,,
,,-0.019820603,,,
,,0.0070767533,,,
,,0.048996136,,,
,,0.042562686,,,
,,0.053752773,,,
,,-0.0242057,,,
,,0.03302155,,,
,,-0.03771078,,,
,,0.051439073,,,
,,0.014457316,,,
,,-0.012168783,,,
,,0.044486444,,,
,,0.032154795,,,
,,-0.013053417,,,
,,0.0275688,,,
,,-0.033162452,,,
,,0.05364744,,,
,,-0.04213096,,,
,,-0.0431595,,,
,,0.03585579,,,
,,0.043498423,,,
,,0.069384426,,,
,,0.036321014,,,
,,0.01862801,,,
,,0.0263726,,,
,,0.051950194,,,
,,-0.022402909,,,
,,-0.04220556,,,
,,0.029954836,,,
,,0.046452764,,,
,,-0.025965886,,,
,,0.023020705,,,
,,-0.03837678,,,
,,-0.037638027,,,
,,0.038809814,,,
,,-0.026984606,,,
,,-0.007663281,,,
,,-0.009578997,,,
,,0.006960536,,,
,,-0.02352443,,,
,,0.053987503,,,
,,0.025084857,,,
,,-0.012371081,,,
,,0.031069018,,,
,,-0.044030625,,,
,,-0.04033996,,,
,,-0.033562068,,,
,,-0.00095083803,,,
,,-0.0402783,,,
,,0.07057333,,,
,,0.06939691,,,
,,-0.01768376,,,
,,-0.014856029,,,
,,0.021925123,,,
,,0.053312674,,,
,,-0.0065033473,,,
,,0.02558861,,,
,,-0.03925794,,,
,,0.06042491,,,
,,-0.04123807,,,
,,-0.028461367,,,
,,0.052206576,,,
,,-0.021679658,,,
,,0.04519486,,,
,,-0.03450165,,,
,,0.076184735,,,
,,0.07445136,,,
,,-0.004547225,,,
,,-0.01012097,,,
,,0.081818365,,,
,,0.037617173,,,
,,-0.055246167,,,
,,-0.019071184,,,
,,-0.040842056,,,
,,-0.024067238,,,
,,-0.07474191,,,
,,0.0023754258,,,
,,0.01680773,,,
,,-0.04945964,,,
,,-0.006598734,,,
,,0.011170212,,,
,,0.0048514633,,,
,,0.0041796723,,,
,,0.039187722,,,
,,0.07057438,,,
,,0.051019594,,,
,,-0.05404026,,,
,,0.045746673,,,
,,-0.03582642,,,
,,-0.059481293,,,
,,0.015741939,,,
,,0.0032584274,,,
,,-0.003135779,,,
,,-0.0018454336,,,
,,0.05085032,,,
,,-0.015516785,,,
,,0.018153917,,,
,,0.020141048,,,
,,-0.031104859,,,
,,0.035462897,,,
,,0.054221462,,,
,,0.03123712,,,
,,-0.05637375,,,
,,0.053428493,,,
,,-0.0047253706,,,
,,-0.023185462,,,
,,0.00044298454,,,
,,-0.076891154,,,
,,-0.06229879,,,
,,0.03925983,,,
,,-0.043941934,,,
,,0.03979316,,,
,,0.05887539,,,
,,0.0047378475,,,
,,0.041314185,,,
,,0.05660162,,,
,,-0.010235202,,,
,,-0.032630954,,,
,,0.064474896,,,
,,-0.030631674,,,
,,0.0363272,,,
,,0.038681474,,,
,,0.06001925,,,
,,-0.007886103,,,
,,-0.053125013,,,
,,0.076439425,,,
,,0.021707177,,,
,,0.045867883,,,
,,0.02030261,,,
,,-0.005080699,,,
,,0.027683094,,,
,,-0.018068613,,,
,,0.011695335,,,
,,0.013993065,,,
,,0.034735214,,,
,,0.055041883,,,
,,-0.054373085,,,
,,0.008172677,,,
,,-0.043146156,,,
,,-0.032501806,,,
,,0.04848199,,,
,,0.04985996,,,
,,0.06131925,,,
,,0.037747715,,,
,,0.016928356,,,
,,-0.03222239,,,
,,-0.035156783,,,
,,-0.024421765,,,
,,0.10743093,,,
,,0.008464214,,,
,,-0.010435875,,,
,,0.029399268,,,
,,-0.04826162,,,
,,-0.015880162,,,
,,-0.056047246,,,
,,-0.017318167,,,
,,0.042512603,,,
,,-0.038442273,,,
,,0.009555988,,,
,,0.011218803,,,
,,0.055737928,,,
,,0.04706191,,,
,,0.015520511,,,
,,-0.03648863,,,
,,0.011429964,,,
,,-0.052630182,,,
,,0.033114843,,,
,,-0.017715365,,,
,,0.027684055,,,
,,0.020434989,,,
,,0.013433174,,,
,,-0.0050550713,,,
,,0.047616877,,,
,,0.04525496,,,
,,0.0052431705,,,
,,-0.048714556,,,
,,0.052873127,,,
,,0.059061125,,,
,,0.050417595,,,
,,0.06391296,,,
,,0.044408035,,,
,,-0.007936472,,,
,,0.023682896,,,
,,0.02485525,,,
,,-0.0073597343,,,
,,-0.044142652,,,
,,0.058454596,,,
,,0.02466298,,,
,,-0.012101815,,,
,,0.05721383,,,
,,0.039917186,,,
,,-0.012723474,,,
,,-0.010974752,,,
,,0.033386447,,,
,,0.051586185,,,
,,0.013357037,,,
,,-0.025450027,,,
,,0.038545247,,,
,,0.042587765,,,
,,0.037547536,,,
,,-0.0038608743,,,
,,-0.03710102,,,
,,-0.0145314755,,,
,,-0.011933865,,,
,,-0.022416618,,,
,,0.0111907115,,,
,,-0.058189705,,,
,,0.020364378,,,
,,0.034550037,,,
,,0.036914974,,,
,,-0.022809012,,,
,,-0.014629131,,,
,,0.057878345,,,
,,0.0057468135,,,
,,0.04995539,,,
,,-0.035791494,,,
,,-0.05318534,,,
,,-0.03309824,,,
,,0.05916997,,,
,,0.024500927,,,
,,-0.01124722,,,
,,-0.049404707,,,
,,-0.02616256,,,
,,-0.003823206,,,
,,0.0013932419,,,
,,0.0050162496,,,
,,0.038332008,,,
,,0.040317588,,,
,,-0.016559187,,,
,,0.022070963,,,
,,-0.03696586,,,
,,0.04077777,,,
,,0.043476038,,,
,,0.012924409,,,
,,0.0066882363,,,
,,-0.038551267,,,
,,0.010403565,,,
,,-0.03577404,,,
,,0.030987196,,,
,,-0.045433313,,,
,,-0.003015542,,,
,,0.08600721,,,
,,-0.0393435,,,
,,-0.046647735,,,
,,0.0041005095,,,
,,0.03697375,,,
,,-0.002475409,,,
,,0.011614018,,,
,,-0.013024845,,,
,,0.07691354,,,
,,0.06322452,,,
,,0.040707976,,,
,,0.007907369,,,
,,0.044465955,,,
,,0.0037679444,,,
,,-0.004166267,,,
,,-0.039817303,,,
,,-0.01183713,,,
,,-0.070607975,,,
,,-0.024603875,,,
,,0.0058749006,,,
,,0.04992835,,,
,,0.042070337,,,
,,-0.022301855,,,
,,-0.03618945,,,
,,0.023068717,,,
,,-0.12915827,,,
,,-0.078754224,,,
,,-0.02754254,,,
,,-0.030693974,,,
,,0.019055575,,,
,,0.015726285,,,
,,0.046750758,,,
,,0.0070677632,,,
,,-0.05007602,,,
,,-0.050379332,,,
,,-0.023684556,,,
,,-0.01432336,,,
,,-0.05487948,,,
,,0.017479824,,,
,,-0.011914777,,,
,,0.015945321,,,
,,-0.020051748,,,
,,-0.08087797,,,
,,-0.08246331,,,
,,-0.04729227,,,
,,-0.010924308,,,
,,-0.00782601,,,
,,-0.029666305,,,
,,-0.025717132,,,
,,0.0119135585,,,
,,0.0072832434,,,
,,0.026267158,,,
,,-0.025978852,,,
,,-0.045318063,,,
,,0.042212114,,,
,,-0.05587638,,,
,,-0.06288808,,,
,,-0.0125266295,,,
,,-0.035796765,,,
,,-0.020512054,,,
,,-0.0249106,,,
,,-0.0138371475,,,
,,0.032992188,,,
,,-0.019374285,,,
,,-0.029761804,,,
,,-0.027728338,,,
,,0.001588273,,,
,,0.01696902,,,
,,0.05183061,,,
,,0.04885711,,,
,,-0.029139098,,,
,,-0.030349884,,,
,,-0.004621068,,,
,,0.03935033,,,
,,0.05256134,,,
,,0.030014087,,,
,,0.07300677,,,
,,0.07216585,,,
,,0.03869277,,,
,,-0.03662399,,,
,,0.0847057,,,
,,0.05165774,,,
,,0.01687547,,,
,,0.008039856,,,
,,0.07712059,,,
,,0.08164378,,,
,,0.03903329,,,
,,-0.036769014,,,
,,-0.03266939,,,
,,-0.021121606,,,
,,-0.0785392,,,
,,-0.044749044,,,
,,0.0150795495,,,
,,-0.01106974,,,
,,-0.0067747715,,,
,,-0.043157116,,,
,,-0.009204344,,,
,,-0.042641692,,,
,,-0.0073993946,,,
,,0.05710518,,,
,,0.042501774,,,
,,0.035415012,,,
,,-0.03022512,,,
,,-0.036635097,,,
,,0.03346805,,,
,,-0.0563647,,,
,,-0.050357018,,,
,,-0.060897842,,,
,,0.005284134,,,
,,0.0330431,,,
,,-0.021980526,,,
,,-0.012360947,,,
,,0.010524517,,,
,,0.014213294,,,
,,0.018339548,,,
,,-0.020867638,,,
,,0.009063061,,,
,,-0.06501321,,,
,,0.05022763,,,
,,-0.0413453,,,
,,-0.01161279,,,
,,0.030393079,,,
,,-0.04842104,,,
,,0.029172564,,,
,,-0.046090618,,,
,,-0.049498517,,,
,,-0.05777755,,,
,,-0.006417236,,,
,,-0.080213316,,,
,,-0.04139771,,,
,,0.015703183,,,
,,0.08626324,,,
,,0.089301,,,
,,0.074434474,,,
,,0.028467221,,,
,,-0.009177504,,,
,,-0.024133528,,,
,,-0.028867312,,,
,,0.05353343,,,
,,0.08688199,,,
,,0.12459162,,,
,,0.0123031745,,,
,,-0.022628922,,,
,,0.0070425794,,,
,,0.005655056,,,
,,0.03375006,,,
,,-0.034255024,,,
,,-0.033774238,,,
,,0.10082235,,,
,,0.054923274,,,
,,0.004906565,,,
,,-0.0025414843,,,
,,-0.028243242,,,
,,-0.024656339,,,
,,-0.09742475,,,
,,-0.025837073,,,
,,0.043979928,,,
,,0.020097211,,,
,,0.0055715945,,,
,,-0.025213242,,,
,,-0.03708574,,,
,,-0.108145885,,,
,,-0.008623155,,,
,,0.042549003,,,
,,0.04080786,,,
,,0.030655755,,,
,,0.052930884,,,
,,-0.04938913,,,
,,-0.0064863516,,,
,,-0.025688661,,,
,,-0.06623526,,,
,,-0.03456105,,,
,,0.027210861,,,
,,0.046283185,,,
,,0.007549411,,,
,,0.027193183,,,
,,0.048844386,,,
,,-0.006622124,,,
,,-0.038049355,,,
,,0.035008088,,,
,,0.0334396,,,
,,-0.06338054,,,
,,-0.05024531,,,
,,-0.0005979939,,,
,,-0.031598672,,,
,,-0.029259164,,,
,,-0.01909606,,,
,,-0.017198924,,,
,,0.053806543,,,
,,-0.022478908,,,
,,0.051493123,,,
,,0.04372656,,,
,,0.027994914,,,
,,0.013307358,,,
,,-0.013932524,,,
,,-0.03292463,,,
,,-0.05522717,,,
,,0.042366393,,,
,,-0.01657891,,,
,,0.033013005,,,
,,-0.038653225,,,
,,0.030068163,,,
,,0.04867017,,,
,,-0.029679535,,,
,,0.021278538,,,
,,0.0033046757,,,
,,0.058341887,,,
,,-0.05122999,,,
,,0.05119361,,,
,,0.021762704,,,
,,-0.014441077,,,
,,0.05099947,,,
,,0.015295145,,,
,,-0.0404249,,,
,,-0.033135526,,,
,,0.020848813,,,
,,-0.026149722,,,
,,0.036199994,,,
,,-0.010175168,,,
,,0.06385855,,,
,,-0.04620342,,,
,,0.061641634,,,
,,0.039933503,,,
,,0.0636915,,,
,,0.06413663,,,
,,-0.025570923,,,
,,-0.05759811,,,
,,0.035677712,,,
,,0.06395226,,,
,,0.04241632,,,
,,-0.037328154,,,
,,0.035070684,,,
,,-0.030414049,,,
,,-0.04051166,,,
,,0.021451153,,,
,,-0.054119006,,,
,,-0.007998828,,,
,,-0.011798268,,,
,,-0.04156618,,,
,,-0.03335456,,,
,,-0.024358006,,,
,,0.0320828,,,
,,0.1282876,,,
,,0.05069482,,,
,,-0.0059063807,,,
,,-0.021224441,,,
,,-0.06285412,,,
,,-0.035157323,,,
,,0.012138568,,,
,,-0.0153116705,,,
,,0.021742992,,,
,,0.02456562,,,
,,-0.015291291,,,
,,-0.059223194,,,
,,-0.010065787,,,
,,-0.060260925,,,
,,-0.032796964,,,
,,0.0129430005,,,
,,-0.038040783,,,
,,0.07409858,,,
,,-0.009084318,,,
,,-0.05642234,,,
,,-0.032832347,,,
,,-0.020181758,,,
,,0.011329405,,,
,,-0.047028277,,,
,,-0.01552545,,,
,,-0.026644217,,,
,,0.03193342,,,
,,-0.036253676,,,
,,-0.01162757,,,
,,0.051819872,,,
,,-0.011502346,,,
,,0.064656705,,,
,,0.0243336,,,
,,0.03337579,,,
,,0.039448686,,,
,,0.0155011825,,,
,,0.010792644,,,
,,-0.013012913,,,
,,-0.002499391,,,
,,0.06502833,,,
,,0.030847948,,,
,,-0.013960658,,,
,,0.04849883,,,
,,0.0035983291,,,
,,0.03151779,,,
,,-0.045522157,,,
,,0.046036236,,,
,,0.038101804,,,
,,0.008366753,,,
,,-0.017952865,,,
,,0.06835261,,,
,,0.036247678,,,
,,0.033042453,,,
,,0.013347632,,,
,,-0.04281998,,,
,,0.045148678,,,
,,-0.04049685,,,
,,-0.008022552,,,
,,-0.013449669,,,
,,0.0525649,,,
,,-0.0026148015,,,
,,0.018518437,,,
,,-0.017701363,,,
,,-0.06663522,,,
,,0.040091414,,,
,,0.06008012,,,
,,-0.032363225,,,
,,-0.05799412,,,
,,-0.04301898,,,
,,-0.063099466,,,
,,-0.048979834,,,
,,-0.08114483,,,
,,0.007043223,,,
,,0.070255764,,,
,,-0.021072878,,,
,,-0.015452924,,,
,,0.047363438,,,
,,0.032946736,,,
,,-0.029167403,,,
,,-0.048514266,,,
,,0.0038354935,,,
,,-0.0577564,,,
,,-0.048097678,,,
,,-0.060437255,,,
,,-0.05702215,,,
,,0.030887395,,,
,,-0.0028471511,,,
,,-0.06957062,,,
,,-0.04807541,,,
,,-0.014930166,,,
,,-0.0006558758,,,
,,-0.0065015797,,,
,,-0.019638682,,,
,,0.024924884,,,
,,-0.049462985,,,
,,0.0050965003,,,
,,-0.05383455,,,
,,-0.009912481,,,
,,-0.03880924,,,
,,0.009467609,,,
,,0.035509408,,,
,,0.028752318,,,
,,-0.04630952,,,
,,-0.011383124,,,
,,-0.042786777,,,
,,-0.047162578,,,
,,-0.010087011,,,
,,-0.029436002,,,
,,0.008274246,,,
,,-0.04216569,,,
,,0.049393296,,,
,,0.04598814,,,
,,-0.06113603,,,
,,-0.017530683,,,
,,0.041034643,,,
,,0.05948873,,,
,,0.02385945,,,
,,0.004122001,,,
,,-0.000535528,,,
,,-0.009528506,,,
,,-0.042675678,,,
,,-0.025030067,,,
,,-0.04153681,,,
,,-0.037418634,,,
,,-0.051619455,,,
,,-0.017790286,,,
,,0.026169345,,,
,,0.011553692,,,
,,-0.008377186,,,
,,-0.039796993,,,
,,0.058888614,,,
,,-0.0403661,,,
,,-0.03817488,,,
,,0.055144716,,,
,,-0.041576445,,,
,,-0.051005315,,,
,,0.0046485574,,,
,,0.0072060544,,,
,,-0.035437807,,,
,,0.028738517,,,
,,0.016427016,,,
,,-0.03175551,,,
,,-0.07718782,,,
,,-0.003325371,,,
,,-0.039416157,,,
,,0.031612646,,,
,,-0.07636237,,,
,,-0.009550491,,,
,,-0.0628322,,,
,,-0.020502811,,,
,,0.028973361,,,
,,0.0414781,,,
,,0.046905942,,,
,,-0.02147159,,,
,,0.011429016,,,
,,0.040371828,,,
,,0.0334872,,,
,,0.021713013,,,
,,0.05617142,,,
,,0.03076369,,,
,,0.06102524,,,
,,-0.07225047,,,
,,-0.023287108,,,
,,-0.008112188,,,
,,0.033018246,,,
,,-0.044047322,,,
,,-0.041529674,,,
,,-0.051976535,,,
,,-0.0849635,,,
,,-0.07121886,,,
,,0.02073074,,,
,,-0.03642369,,,
,,0.04604094,,,
,,-0.019898193,,,
,,0.058068868,,,
,,0.028951105,,,
,,-0.04712878,,,
,,0.034267366,,,
,,0.038152814,,,
,,-0.011203995,,,
,,-0.052793454,,,
,,-0.01853652,,,
,,0.0041257082,,,
,,-0.017561877,,,
,,0.0070349434,,,
,,-0.04057683,,,
,,0.06058902,,,
,,0.046514943,,,
,,0.013638923,,,
,,0.023180254,,,
,,-0.02664185,,,
,,0.011948496,,,
,,0.05239825,,,
,,0.04610924,,,
,,-0.05628098,,,
,,0.031582747,,,
,,-0.017420065,,,
,,0.043400925,,,
,,0.031276822,,,
,,-0.04899703,,,
,,-0.064420976,,,
,,0.035475075,,,
,,0.029418552,,,
,,-0.029880468,,,
,,0.036106236,,,
,,-0.06276347,,,
,,-0.052381404,,,
,,-0.053094808,,,
,,0.018813346,,,
,,0.05382485,,,
,,0.04300045,,,
,,0.007019738,,,
,,-0.024892762,,,
,,0.012733247,,,
,,-0.0035383992,,,
,,-0.021573024,,,
,,-0.046027545,,,
,,-0.0033088194,,,
,,-0.061829466,,,
,,0.036572427,,,
,,-0.040672913,,,
,,-0.057806216,,,
,,0.030547533,,,
,,-0.048023857,,,
,,0.0011240294,,,
,,0.0066150767,,,
,,-0.05259377,,,
,,-0.02860915,,,
,,-0.00029637828,,,
,,0.039172288,,,
,,0.039133057,,,
,,0.04631852,,,
,,0.008384157,,,
,,-0.0027088912,,,
,,-0.019288385,,,
,,0.029743828,,,
,,0.049456935,,,
,,0.038453296,,,
,,0.006314159,,,
,,0.05025772,,,
,,0.057448797,,,
,,-0.05322359,,,
,,0.052247223,,,
,,0.042549852,,,
,,0.00069989316,,,
,,-0.011377295,,,
,,0.015388736,,,
,,-0.0058844145,,,
,,0.035928104,,,
,,-0.038390238,,,
,,-0.018159857,,,
,,-0.0063064946,,,
,,0.04580957,,,
,,0.056367878,,,
,,-0.025136532,,,
,,0.0367603,,,
,,-0.01781349,,,
,,0.0037313367,,,
,,-0.035245284,,,
,,-0.06195493,,,
,,-0.055188,,,
,,-0.019015085,,,
,,-0.08641531,,,
,,-0.08379269,,,
,,0.028849108,,,
,,0.12985411,,,
,,0.024788426,,,
,,0.036876574,,,
,,0.011623974,,,
,,0.028974803,,,
,,-0.06491397,,,
,,-0.041485418,,,
,,-0.019035395,,,
,,0.014605537,,,
,,0.011522944,,,
,,-0.055933673,,,
,,0.018865136,,,
,,-0.05162925,,,
,,-0.029183734,,,
,,0.0140381,,,
,,0.020038452,,,
,,0.07463064,,,
,,0.039788395,,,
,,0.010395554,,,
,,-0.0022520602,,,
,,-0.02849483,,,
,,0.05370863,,,
,,0.035187207,,,
,,-0.0059627253,,,
,,-0.0036740464,,,
,,-0.04462378,,,
,,-0.08288149,,,
,,0.021336332,,,
,,-0.0379287,,,
,,0.040274665,,,
,,0.040060725,,,
,,-0.03253383,,,
,,-0.050474767,,,
,,-0.04057133,,,
,,0.013944561,,,
,,-0.021324638,,,
,,-0.04873151,,,
,,0.043346766,,,
,,-0.00025942118,,,
,,0.028491095,,,
,,-0.0036530953,,,
,,-0.0070243813,,,
,,0.047426827,,,
,,0.01985384,,,
,,-0.01325839,,,
,,-0.03233619,,,
,,0.0072578047,,,
,,-0.011025251,,,
,,0.03477211,,,
,,0.008464119,,,
,,-0.04883966,,,
,,-0.031947806,,,
,,-0.023029802,,,
,,-0.043575108,,,
,,0.008506831,,,
,,0.031745195,,,
,,0.045015827,,,
,,-0.05451292,,,
,,0.04916596,,,
,,0.032262776,,,
,,0.036991313,,,
,,0.051334478,,,
,,-0.052335612,,,
,,0.045057923,,,
,,-0.013238879,,,
,,0.054955516,,,
,,0.042139113,,,
,,-0.00033085264,,,
,,-0.0584752,,,
,,0.023241835,,,
,,-0.0052606566,,,
,,-0.00414417,,,
,,-0.024361169,,,
,,0.051552113,,,
,,-0.026623752,,,
,,0.00211348,,,
,,0.015896998,,,
,,0.038992714,,,
,,0.0050994847,,,
,,-0.077503316,,,
,,-0.076682724,,,
,,-0.032971602,,,
,,-0.021641921,,,
,,0.0022395663,,,
,,-0.04416784,,,
,,0.015669154,,,
,,0.008752445,,,
,,-0.04502075,,,
,,-0.0424532,,,
,,-0.04975548,,,
,,0.04216741,,,
,,0.047840077,,,
,,0.027198292,,,
,,-0.04350708,,,
,,0.04111875,,,
,,-0.04201863,,,
,,-0.027627164,,,
,,0.027215319,,,
,,0.050835524,,,
,,0.055428907,,,
,,0.03301879,,,
,,-0.051740892,,,
,,0.0079643335,,,
,,-0.037154514,,,
,,-0.019257989,,,
,,0.08985985,,,
,,-0.03093932,,,
,,-0.021400975,,,
,,0.044664655,,,
,,0.011391735,,,
,,-0.038650103,,,
,,-0.012289504,,,
,,-0.03028249,,,
,,-0.03384406,,,
,,0.056341484,,,
,,-0.051684108,,,
,,0.0042197616,,,
,,-0.020303747,,,
,,-0.024540989,,,
,,0.016714888,,,
,,0.012212084,,,
,,-0.042533424,,,
,,0.005006154,,,
,,-0.016949357,,,
,,-0.009637282,,,
,,0.038876846,,,
,,-0.025412109,,,
,,0.0026827666,,,
,,-0.025397297,,,
,,0.052332465,,,
,,0.054072622,,,
,,0.009538476,,,
,,0.05689393,,,
,,0.021728676,,,
,,-0.068020545,,,
,,0.039550465,,,
,,-0.053647526,,,
,,0.025515718,,,
,,0.03268352,,,
,,-0.0028297792,,,
,,-0.031914297,,,
,,0.0028556662,,,
,,-0.0811994,,,
,,-0.0641295,,,
,,-0.052814495,,,
,,0.03792465,,,
,,0.039562806,,,
,,0.032308716,,,
,,0.06711625,,,
,,0.0553964,,,
,,-0.021034807,,,
,,-0.0015689164,,,
,,-0.088370584,,,
,,0.016155206,,,
,,0.06755787,,,
,,0.038848873,,,
,,0.019552795,,,
,,-0.017374758,,,
,,0.023686113,,,
,,-0.031407,,,
,,-0.01774289,,,
,,0.052024122,,,
,,-0.04203928,,,
,,0.031736698,,,
,,0.035223663,,,
,,0.00095845247,,,
,,-0.06584417,,,
,,0.011553039,,,
,,0.026753038,,,
,,0.108272985,,,
,,-0.012739831,,,
,,0.0077507356,,,
,,-0.042578045,,,
,,0.035189122,,,
,,-0.036131147,,,
,,-0.05287492,,,
,,0.0501107,,,
,,-0.023249827,,,
,,0.048076056,,,
,,-0.043635327,,,
,,0.04480834,,,
,,-0.04992912,,,
,,-0.02983131,,,
,,0.006172151,,,
,,-0.052714627,,,
,,-0.051484197,,,
,,0.04670892,,,
,,0.023454258,,,
,,0.026645914,,,
,,-0.025349563,,,
,,-0.014951854,,,
,,0.045074325,,,
,,-0.020399917,,,
,,0.07308515,,,
,,0.019210067,,,
,,0.012023903,,,
,,0.045068536,,,
,,-0.01651073,,,
,,0.05410631,,,
,,-0.060410477,,,
,,-0.01482588,,,
,,-0.026943047,,,
,,0.058889102,,,
,,0.031748787,,,
,,0.011990878,,,
,,-0.010926483,,,
,,0.002781771,,,
,,-0.048960593,,,
,,-0.016171923,,,
,,-0.030264055,,,
,,0.05396357,,,
,,-0.038497902,,,
,,0.0028296218,,,
,,0.034258492,,,
,,0.056591734,,,
,,0.03763341,,,
,,-0.04651167,,,
,,0.004824797,,,
,,-0.0035279656,,,
,,-0.013167769,,,
,,-0.015760692,,,
,,0.03999711,,,
,,0.022409145,,,
,,0.0033329704,,,
,,-0.027332032,,,
,,0.039274298,,,
,,0.0544355,,,
,,-0.041664287,,,
,,0.048169922,,,
,,-0.04771022,,,
,,-0.026791537,,,
,,-0.019741662,,,
,,0.06598347,,,
,,0.056799978,,,
,,-0.02789036,,,
,,-0.048410438,,,
,,-0.06154908,,,
,,0.022831956,,,
,,-0.02982782,,,
,,0.015692318,,,
,,0.06508742,,,
,,0.060962673,,,
,,-0.028401045,,,
,,0.03213404,,,
,,0.031636592,,,
,,-0.040226303,,,
,,-0.053386256,,,
,,-0.0019428582,,,
,,-0.0063104085,,,
,,0.0024653294,,,
,,0.022634795,,,
,,-0.020198401,,,
,,0.027399758,,,
,,-0.03724297,,,
,,-0.07612754,,,
,,-0.024909653,,,
,,0.03410839,,,
,,-0.030745557,,,
,,-0.0035537542,,,
,,-0.0017546989,,,
,,0.030535147,,,
,,0.00499757,,,
,,-0.0050244285,,,
,,0.020080766,,,
,,-0.09119252,,,
,,-0.0096114455,,,
,,-0.005441103,,,
,,0.04269659,,,
,,0.013721738,,,
,,0.025520263,,,
,,-0.030271973,,,
,,0.111841135,,,
,,0.108059354,,,
,,-0.012836901,,,
,,0.02652992,,,
,,0.059057966,,,
,,-0.033339385,,,
,,0.017210504,,,
,,0.055450577,,,
,,0.12333658,,,
,,-0.014340693,,,
,,0.026639732,,,
,,-0.027521344,,,
,,-0.0055870833,,,
,,0.020370979,,,
,,-0.00973403,,,
,,0.011628006,,,
,,-0.00431401,,,
,,0.03519587,,,
,,0.012112667,,,
,,-0.018065533,,,
,,0.02174823,,,
,,0.0057276725,,,
,,-0.031848185,,,
,,-0.026848309,,,
,,-0.024751183,,,
,,-0.0413878,,,
,,-0.047269613,,,
,,0.033565626,,,
,,-0.06303414,,,
,,-0.05047424,,,
,,-0.041561626,,,
,,0.04339803,,,
,,0.020581674,,,
,,0.004148703,,,
,,0.010288525,,,
,,0.05419057,,,
,,0.028182467,,,
,,-0.05721347,,,
,,-0.002618529,,,
,,-0.03959637,,,
,,0.04198494,,,
,,-0.05092914,,,
,,0.041137625,,,
,,-0.02943458,,,
,,0.03074854,,,
,,0.042750828,,,
,,0.04796991,,,
,,0.05145562,,,
,,0.05209923,,,
,,0.04929152,,,
,,0.026049698,,,
,,-0.043518364,,,
,,0.057633087,,,
,,-0.024903435,,,
,,-0.006628896,,,
,,0.009465146,,,
,,0.018909888,,,
,,0.066265896,,,
,,0.053407777,,,
,,0.025285956,,,
,,0.030775258,,,
,,-0.023786388,,,
,,-0.027222104,,,
,,-0.008962107,,,
,,0.0049130204,,,
,,0.090529725,,,
,,-0.0359283,,,
,,0.024011109,,,
,,-0.014879705,,,
,,0.051928956,,,
,,0.03753178,,,
,,-0.006297747,,,
,,0.017545052,,,
,,-0.06682575,,,
,,0.04905799,,,
,,-0.025008837,,,
,,-0.013999358,,,
,,0.0354951,,,
,,0.043253496,,,
,,0.10296297,,,
,,0.073763855,,,
,,-0.020133514,,,
,,-0.014851294,,,
,,-0.0030004298,,,
,,0.03758935,,,
,,0.022573669,,,
,,0.03563681,,,
,,0.04386457,,,
,,-0.018813515,,,
,,-0.062431972,,,
,,-0.041800268,,,
,,-0.00781583,,,
,,-0.016593702,,,
,,-0.03777698,,,
,,0.012904984,,,
,,-0.019853726,,,
,,-0.025074774,,,
,,0.04913135,,,
,,-0.032647725,,,
,,-0.067510635,,,
,,-0.014820017,,,
,,0.051048674,,,
,,0.034923695,,,
,,0.0059613455,,,
,,-0.03868944,,,
,,-0.04420805,,,
,,0.014211604,,,
,,0.02003132,,,
,,0.042201113,,,
,,-0.04665278,,,
,,0.0020497786,,,
,,-0.04472058,,,
,,-0.0434811,,,
,,-0.051370014,,,
,,-0.061683163,,,
,,-0.014644937,,,
,,-0.03788565,,,
,,-0.04012371,,,
,,-0.016892815,,,
,,-0.029813735,,,
,,-0.01725187,,,
,,0.063552134,,,
,,0.09253481,,,
,,0.0049891644,,,
,,0.056614,,,
,,0.020980041,,,
,,0.009205378,,,
,,-0.046328336,,,
,,0.0002707868,,,
,,-0.033628464,,,
,,0.0051304474,,,
,,0.009489682,,,
,,-0.0052923844,,,
,,0.06532747,,,
,,0.04020471,,,
,,-0.0045994394,,,
,,0.0004772739,,,
,,0.0064225444,,,
,,-0.00960996,,,
,,-0.04206259,,,
,,0.06520477,,,
,,-0.00026873394,,,
,,0.08799261,,,
,,0.07959482,,,
,,0.0387499,,,
,,0.014525441,,,
,,-0.044580236,,,
,,0.020921174,,,
,,-0.05214959,,,
,,0.08212012,,,
,,0.021151872,,,
,,0.039237507,,,
,,0.030031689,,,
,,-0.05762238,,,
,,-0.043243445,,,
,,-0.04383606,,,
,,-0.01403099,,,
,,-0.0662383,,,
,,-0.04369879,,,
,,-0.0740423,,,
,,-0.017429596,,,
,,-0.05353557,,,
,,0.034457657,,,
,,0.029525038,,,
,,-0.037014212,,,
,,0.029831083,,,
,,0.057477303,,,
,,0.0008666302,,,
,,-0.0048912233,,,
,,-0.03811048,,,
,,0.044170123,,,
,,0.0438822,,,
,,-0.061581075,,,
,,-0.027590757,,,
,,0.052253477,,,
,,0.05806931,,,
,,0.014475154,,,
,,0.007179078,,,
,,0.010524712,,,
,,-0.05754341,,,
,,-0.0482967,,,
,,-0.018686358,,,
,,-0.045247078,,,
,,0.008741121,,,
,,-0.029887414,,,
,,0.024434505,,,
,,-0.0045003165,,,
,,-0.0365037,,,
,,0.033631705,,,
,,-0.04211087,,,
,,-0.05609529,,,
,,-0.058700718,,,
,,0.048409116,,,
,,-0.055967074,,,
,,0.0010167554,,,
,,-0.04306479,,,
,,-0.040157955,,,
,,0.03405714,,,
,,0.03145314,,,
,,0.047634546,,,
,,-0.06123614,,,
,,0.02005926,,,
,,0.01856335,,,
,,-0.033003267,,,
,,-0.021481901,,,
,,0.06268127,,,
,,-0.023206132,,,
,,-0.040544804,,,
,,-0.019539528,,,
,,0.05602107,,,
,,0.03411707,,,
,,0.05827731,,,
,,-0.015475502,,,
,,-0.034045447,,,
,,0.012299593,,,
,,-0.04836805,,,
,,0.0007716986,,,
,,0.014558849,,,
,,-0.0570806,,,
,,-0.015912231,,,
,,0.022725018,,,
,,-0.00019901496,,,
,,0.048803374,,,
,,0.04747102,,,
,,0.02607777,,,
,,0.009871655,,,
,,-0.031924956,,,
,,-0.03621749,,,
,,0.056915812,,,
,,0.029344171,,,
,,0.032650184,,,
,,0.021975623,,,
,,-0.069044776,,,
,,-0.028967222,,,
,,-0.04645095,,,
,,-0.038739167,,,
,,-0.05885744,,,
,,-0.015640773,,,
,,0.07227755,,,
,,-0.015494853,,,
,,-0.047350645,,,
,,0.011056536,,,
,,-0.056835342,,,
,,0.04319422,,,
,,0.015561801,,,
,,0.06880332,,,
,,0.018925324,,,
,,-0.03634437,,,
,,-0.06772487,,,
,,0.038091563,,,
,,0.014765705,,,
,,0.022465788,,,
,,-0.028963162,,,
,,0.07181156,,,
,,-0.027962014,,,
,,-0.07544798,,,
,,-0.031890452,,,
,,-0.03493009,,,
,,0.046742767,,,
,,-0.030155553,,,
,,-0.0036896495,,,
,,0.052996483,,,
,,0.074015945,,,
,,-0.11664083,,,
,,-0.08514229,,,
,,-0.08971101,,,
,,0.031454798,,,
,,0.03877913,,,
,,0.052806426,,,
,,0.033064235,,,
,,-0.042287793,,,
,,-0.007748376,,,
,,0.007528926,,,
,,0.030137684,,,
,,-0.03606879,,,
,,-0.021185486,,,
,,0.054997943,,,
,,0.027608452,,,
,,-0.027594097,,,
,,-0.12106037,,,
,,-0.057003174,,,
,,-0.00894332,,,
,,-0.031346187,,,
,,0.03866866,,,
,,-0.04423642,,,
,,0.0060528,,,
,,-0.07231438,,,
,,-0.07666501,,,
,,0.027232258,,,
,,-0.019611744,,,
,,-0.038326304,,,
,,0.03536215,,,
,,-0.016327593,,,
,,0.060952697,,,
,,0.026918376,,,
,,-0.05633479,,,
,,0.05497127,,,
,,0.029110158,,,
,,0.0021368626,,,
,,0.06754547,,,
,,-0.0014316313,,,
,,0.050323613,,,
,,-0.0028140713,,,
,,-0.07997875,,,
,,-0.055760983,,,
,,-0.0169177,,,
,,0.07929769,,,
,,0.050044723,,,
,,0.0514915,,,
,,0.053403456,,,
,,0.027729014,,,
,,-0.059448916,,,
,,-0.01686041,,,
,,-0.013829921,,,
,,0.032451212,,,
,,-0.046894588,,,
,,-0.000980136,,,
,,0.029457951,,,
,,-0.06646882,,,
,,-0.010733336,,,
,,-0.028917793,,,
,,0.06761742,,,
,,-0.020516442,,,
,,-0.078347534,,,
,,-0.013973389,,,
,,-0.039886035,,,
,,0.021526529,,,
,,-0.043606605,,,
,,0.0066110524,,,
,,0.0068792705,,,
,,0.0051177,,,
,,0.05528499,,,
,,0.041000914,,,
,,0.049350183,,,
,,0.02907426,,,
,,0.026525887,,,
,,0.07231568,,,
,,-0.030972414,,,
,,0.091872774,,,
,,0.06036156,,,
,,-0.046562,,,
,,0.020143237,,,
,,-0.0274155,,,
,,0.07297885,,,
,,0.007212017,,,
,,-0.0243615,,,
,,0.02800111,,,
,,0.028043028,,,
,,-0.0148304235,,,
,,-0.040481713,,,
,,0.03769322,,,
,,0.008981404,,,
,,-0.0321412,,,
,,0.018554391,,,
,,-0.07355629,,,
,,-0.0653961,,,
,,-0.020051127,,,
,,-0.05294247,,,
,,-0.023583239,,,
,,0.012251667,,,
,,-0.04295053,,,
,,-0.0030908533,,,
,,-0.017014438,,,
,,-0.0044704257,,,
,,-0.05575819,,,
,,0.020352848,,,
,,-0.00019138408,,,
,,-0.037082408,,,
,,-0.061821748,,,
,,0.0187603,,,
,,0.029032296,,,
,,-0.026015429,,,
,,-0.041205097,,,
,,-0.029718388,,,
,,-0.03800176,,,
,,-0.0011942525,,,
,,-0.05022337,,,
,,-0.034376543,,,
,,0.070852354,,,
,,0.016422722,,,
,,-0.047591902,,,
,,0.049491215,,,
,,0.051322844,,,
,,-0.022237852,,,
,,-0.009956081,,,
,,0.014598908,,,
,,-0.046491466,,,
,,-0.058064207,,,
,,0.003987293,,,
,,-0.034366194,,,
,,0.01459427,,,
,,0.038246643,,,
,,-0.062610954,,,
,,-0.013174972,,,
,,0.021610543,,,
,,0.03388873,,,
,,0.013513302,,,
,,0.026232377,,,
,,0.041907288,,,
,,0.06950975,,,
,,0.005290725,,,
,,-0.0014403202,,,
,,0.048980743,,,
,,-0.049716882,,,
,,0.0014332843,,,
,,0.013085551,,,
,,0.04520311,,,
,,0.06615552,,,
,,-0.010343862,,,
,,-0.08496872,,,
,,0.0018425806,,,
,,-0.051874787,,,
,,0.039419826,,,
,,0.03114674,,,
,,0.039834607,,,
,,0.04518775,,,
,,-0.024889944,,,
,,0.014363154,,,
,,-0.026845522,,,
,,0.0284749,,,
,,-0.026427874,,,
,,-0.02954938,,,
,,-0.048828505,,,
,,0.016861228,,,
,,0.036408745,,,
,,0.040708713,,,
,,0.04537719,,,
,,-0.024285551,,,
,,0.04890257,,,
,,-0.03489167,,,
,,0.05449468,,,
,,0.034283776,,,
,,-0.061140753,,,
,,0.043305364,,,
,,-0.05358622,,,
,,0.016707355,,,
,,-0.060805887,,,
,,-0.029028406,,,
,,-0.032624334,,,
,,-0.039364353,,,
,,-0.04649926,,,
,,0.050497707,,,
,,-0.03846338,,,
,,-0.051187456,,,
,,0.001867006,,,
,,0.027457412,,,
,,0.048670657,,,
,,-0.0035334798,,,
,,-0.05140336,,,
,,0.040724806,,,
,,-0.037625387,,,
,,0.039174177,,,
,,-0.021662196,,,
,,0.042934015,,,
,,0.033976648,,,
,,0.038248368,,,
,,0.0093756,,,
,,-0.032990463,,,
,,0.015317799,,,
,,-0.00630361,,,
,,0.033741288,,,
,,-0.04146989,,,
,,0.051203188,,,
,,0.03906107,,,
,,-0.013212987,,,
,,0.012298902,,,
,,-0.043821454,,,
,,0.046117645,,,
,,0.0562209,,,
,,-0.011241649,,,
,,0.013756747,,,
,,0.014749338,,,
,,-0.00017226819,,,
,,-0.01255385,,,
,,-0.008822946,,,
,,-0.0018005223,,,
,,-0.039054673,,,
,,-0.014317347,,,
,,-0.040188715,,,
,,-0.033496372,,,
,,0.03428826,,,
,,0.033339866,,,
,,0.04024858,,,
,,-0.014880171,,,
,,-0.015309414,,,
,,-0.052119657,,,
,,0.0075267595,,,
,,-0.0054705455,,,
,,-0.09212567,,,
,,1.3968322e-05,,,
,,0.03270359,,,
,,0.011136557,,,
,,0.05355263,,,
,,-0.011244932,,,
,,0.04005856,,,
,,-0.072794974,,,
,,-0.02859649,,,
,,-0.05186587,,,
,,-0.0020793893,,,
,,0.027331503,,,
,,0.07426403,,,
,,-0.034443937,,,
,,0.02073721,,,
,,-0.07646915,,,
,,-0.08617114,,,
,,0.020860588,,,
,,0.074353844,,,
,,0.043547094,,,
,,0.016106106,,,
,,0.058865022,,,
,,0.027697222,,,
,,0.013775673,,,
,,0.060611293,,,
,,0.015451096,,,
,,0.034150105,,,
,,-0.021661894,,,
,,0.03719482,,,
,,0.040963396,,,
,,-0.030361358,,,
,,0.040798426,,,
,,-0.007197848,,,
,,-0.029683951,,,
,,0.030108077,,,
,,0.023451561,,,
,,0.053361166,,,
,,0.031607043,,,
,,0.026176628,,,
,,0.042494234,,,
,,0.024973232,,,
,,-0.062162317,,,
,,-0.029371245,,,
,,0.017981375,,,
,,-0.016811658,,,
,,0.04883557,,,
,,-0.026249202,,,
,,-0.03610804,,,
,,0.004382126,,,
,,-0.02379871,,,
,,-0.008367251,,,
,,-0.03569819,,,
,,0.05286292,,,
,,-0.019044586,,,
,,0.026607083,,,
,,-0.0530412,,,
,,-0.01199606,,,
,,-0.03328319,,,
,,-0.006969905,,,
,,0.053457696,,,
,,-0.0016077792,,,
,,-0.0055820467,,,
,,0.029938767,,,
,,0.033537563,,,
,,-0.040281896,,,
,,0.05666877,,,
,,-0.0070240214,,,
,,-0.052844096,,,
,,-0.03866921,,,
,,-0.014830922,,,
,,-0.012194784,,,
,,0.050649695,,,
,,-0.04536287,,,
,,-0.052645102,,,
,,-0.05131949,,,
,,-0.051069345,,,
,,-0.00467385,,,
,,-0.00608108,,,
,,-0.020390727,,,
,,0.05134643,,,
,,0.020289874,,,
,,0.01610484,,,
,,0.002818634,,,
,,-0.007435119,,,
,,-0.0026219191,,,
,,0.0089644985,,,
,,0.011971044,,,
,,0.070836134,,,
,,0.054648504,,,
,,0.025682682,,,
,,0.020751603,,,
,,0.018260341,,,
,,-0.016898591,,,
,,0.04903139,,,
,,-0.04986983,,,
,,0.03249996,,,
,,0.001605613,,,
,,0.007689103,,,
,,0.024574777,,,
,,0.054660488,,,
,,0.057733335,,,
,,-0.013175267,,,
,,-0.03870994,,,
,,-0.033183854,,,
,,-0.0100321,,,
,,-0.013414803,,,
,,-0.0067393123,,,
,,0.08064915,,,
,,-0.022341464,,,
,,0.037695363,,,
,,-0.038664363,,,
,,-0.07439355,,,
,,0.030412003,,,
,,-0.04010585,,,
,,-0.034687735,,,
,,-0.0011534154,,,
,,0.05170538,,,
,,0.045650657,,,
,,-0.034062594,,,
,,-0.0037354059,,,
,,0.046758126,,,
,,-0.012695944,,,
,,0.040990386,,,
,,0.0082185,,,
,,0.0022996054,,,
,,0.026382083,,,
,,0.028928608,,,
,,0.040766943,,,
,,0.04626832,,,
,,0.021544287,,,
,,0.01428007,,,
,,0.00020472912,,,
,,0.011326413,,,
,,0.041723743,,,
,,-0.03876044,,,
,,-0.035286624,,,
,,-0.029477006,,,
,,-0.038084976,,,
,,0.014780597,,,
,,-0.0027935468,,,
,,0.053920105,,,
,,-0.04059828,,,
,,0.06884535,,,
,,-0.07021076,,,
,,0.029550716,,,
,,-0.081715114,,,
,,-0.06797869,,,
,,-0.027900921,,,
,,-0.029895443,,,
,,0.042701203,,,
,,0.046768095,,,
,,0.081825316,,,
,,-0.009690058,,,
,,-0.09287269,,,
,,0.009589077,,,
,,-0.017712366,,,
,,-0.05003063,,,
,,-0.035501763,,,
,,0.03603486,,,
,,-0.0021467863,,,
,,-0.05762739,,,
,,-0.049635533,,,
,,0.039134443,,,
,,0.058629747,,,
,,-0.057992622,,,
,,-0.026489872,,,
,,-0.061010998,,,
,,0.01704483,,,
,,-0.062713295,,,
,,0.010149595,,,
,,0.034653302,,,
,,0.02080571,,,
,,-0.04135789,,,
,,0.022472152,,,
,,-0.027881501,,,
,,0.0031735366,,,
,,-0.06992147,,,
,,-0.020381283,,,
,,0.039247088,,,
,,0.05198504,,,
,,0.05668144,,,
,,0.0026148243,,,
,,0.05954745,,,
,,0.027982667,,,
,,-0.009425085,,,
,,-0.03632547,,,
,,-0.043187488,,,
,,-0.011451968,,,
,,-0.057139356,,,
,,-0.05517926,,,
,,-0.029816475,,,
,,-0.0417487,,,
,,0.058544245,,,
,,-0.046300996,,,
,,0.032887712,,,
,,0.054963857,,,
,,0.024677474,,,
,,-0.018279172,,,
,,0.027981415,,,
,,0.061487045,,,
,,-0.05049448,,,
,,-0.0034116888,,,
,,0.006548371,,,
,,-0.040288832,,,
,,0.022973154,,,
,,0.020322934,,,
,,-0.059242655,,,
,,-0.039302044,,,
,,-0.011524655,,,
,,0.028776823,,,
,,-0.0043431823,,,
,,0.0025798422,,,
,,0.048121314,,,
,,0.01724839,,,
,,-0.013709353,,,
,,-0.023734694,,,
,,-0.0025683853,,,
,,0.004292171,,,
,,0.032943077,,,
,,0.05292659,,,
,,-0.0032344742,,,
,,0.043990213,,,
,,0.03848674,,,
,,0.013890428,,,
,,-0.018038413,,,
,,-0.007984866,,,
,,0.035663225,,,
,,0.034796428,,,
,,0.036209777,,,
,,0.040187858,,,
,,-0.056500442,,,
,,-0.043561094,,,
,,-0.058140114,,,
,,-0.036084704,,,
,,0.01114449,,,
,,0.020381268,,,
,,-0.035388574,,,
,,0.019502018,,,
,,-0.01659154,,,
,,0.064812586,,,
,,-0.054082733,,,
,,0.035180133,,,
,,0.0062982836,,,
,,-0.045546133,,,
,,-0.058860414,,,
,,0.05065544,,,
,,-0.027882937,,,
,,0.0022557324,,,
,,-0.013198029,,,
,,-0.019007001,,,
,,-0.05595621,,,
,,-0.04882983,,,
,,0.045453,,,
,,0.009742144,,,
,,0.01674723,,,
,,-0.055118818,,,
,,-0.03856761,,,
,,0.052769475,,,
,,-0.03640977,,,
,,-0.023456464,,,
,,-0.052058455,,,
,,-0.021069372,,,
,,0.031160265,,,
,,0.058357686,,,
,,-0.029224819,,,
,,0.019640174,,,
,,0.03589435,,,
,,0.054408975,,,
,,0.00084383046,,,
,,-0.01651396,,,
,,0.022965996,,,
,,0.045921616,,,
,,-0.008914678,,,
,,0.03598413,,,
,,0.04981097,,,
,,0.073048174,,,
,,-0.03917582,,,
,,-0.054646544,,,
,,-0.01310121,,,
,,-0.073732324,,,
,,-0.041733168,,,
,,0.023447765,,,
,,0.00953501,,,
,,-0.029725928,,,
,,-0.02612545,,,
,,-0.04920526,,,
,,-0.0036865887,,,
,,-0.0832534,,,
,,-0.101032116,,,
,,-0.06893993,,,
,,-0.07344722,,,
,,-0.06776322,,,
,,-0.052116703,,,
,,-0.046517085,,,
,,-0.0058490434,,,
,,-0.00040923047,,,
,,0.008038675,,,
,,-0.048589703,,,
,,-0.042071465,,,
,,-0.046668638,,,
,,-0.040344343,,,
,,-0.046625145,,,
,,-0.011443559,,,
,,0.06431124,,,
,,0.071703985,,,
,,0.019968005,,,
,,0.026849756,,,
,,-0.030367821,,,
,,0.005451774,,,
,,-0.01599691,,,
,,-0.0069926465,,,
,,0.015887858,,,
,,0.023013918,,,
,,1.3927652e-05,,,
,,-0.006211308,,,
,,0.053238153,,,
,,-0.0015082003,,,
,,0.0038681668,,,
,,0.039823897,,,
,,0.0059238747,,,
,,-0.03010243,,,
,,0.03521954,,,
,,0.042494208,,,
,,-0.014999958,,,
,,-0.042297304,,,
,,0.0040679118,,,
,,0.036533307,,,
,,0.026149066,,,
,,-0.017433023,,,
,,-0.021220664,,,
,,-0.05807571,,,
,,0.04513041,,,
,,-0.027437815,,,
,,0.034949493,,,
,,-0.014633635,,,
,,0.010460399,,,
,,0.015047154,,,
,,0.045091573,,,
,,-0.051805895,,,
,,-0.026708195,,,
,,0.0071636694,,,
,,-0.0055961986,,,
,,0.023184739,,,
,,0.037961613,,,
,,-0.03132472,,,
,,0.060725678,,,
,,0.044939157,,,
,,-0.022833599,,,
,,0.025910433,,,
,,-0.0045610676,,,
,,-0.011767203,,,
,,0.004943852,,,
,,-0.020945521,,,
,,0.08880509,,,
,,0.022979088,,,
,,0.044782653,,,
,,0.009481035,,,
,,0.06123273,,,
,,0.013226264,,,
,,0.020447696,,,
,,0.037757326,,,
,,0.025368065,,,
,,-0.073758416,,,
,,0.052675746,,,
,,0.009587959,,,
,,0.016356396,,,
,,-0.007141252,,,
,,0.0924021,,,
,,0.069139905,,,
,,-0.009154869,,,
,,0.047634408,,,
,,-0.031127717,,,
,,-0.05691508,,,
,,0.0034437454,,,
,,-0.019776234,,,
,,-0.021140965,,,
,,-0.013609696,,,
,,0.035689402,,,
,,0.054717522,,,
,,0.049101025,,,
,,-0.048721917,,,
,,0.02524343,,,
,,-0.008502772,,,
,,0.027757648,,,
,,-0.05029767,,,
,,0.031926617,,,
,,-0.024960719,,,
,,0.038429316,,,
,,0.0030833154,,,
,,0.0020657552,,,
,,0.04886609,,,
,,0.0047073723,,,
,,-0.053916115,,,
,,-0.056640238,,,
,,-0.055889025,,,
,,0.01820227,,,
,,0.0031855428,,,
,,-0.0032655306,,,
,,0.024577005,,,
,,0.059937168,,,
,,0.02545279,,,
,,-0.01612416,,,
,,0.002075677,,,
,,-0.017704183,,,
,,0.054472543,,,
,,0.01392621,,,
,,0.040479198,,,
,,0.0015903789,,,
,,-0.00086633343,,,
,,0.013624444,,,
,,-0.015198765,,,
,,-0.050972767,,,
,,0.031168874,,,
,,0.027995905,,,
,,-0.09184909,,,
,,-0.08455674,,,
,,0.035772216,,,
,,0.046102386,,,
,,-0.008799815,,,
,,-0.03503248,,,
,,0.019382779,,,
,,-0.09289805,,,
,,-0.068407536,,,
,,-0.035458803,,,
,,-0.0032690326,,,
,,-0.04274909,,,
,,-0.017646853,,,
,,0.060252666,,,
,,-0.028755687,,,
,,-0.003601603,,,
,,0.040402718,,,
,,0.07911601,,,
,,0.08422628,,,
,,-0.020851407,,,
,,0.0077705258,,,
,,-0.052488755,,,
,,0.032739058,,,
,,-0.04516448,,,
,,0.027682275,,,
,,-0.01082538,,,
,,0.02580149,,,
,,0.050959002,,,
,,-0.00010152166,,,
,,0.031738978,,,
,,-0.013320046,,,
,,-0.005092457,,,
,,-0.0054514864,,,
,,0.013412628,,,
,,-0.061585616,,,
,,-0.05521982,,,
,,0.00012689814,,,
,,-0.010588509,,,
,,0.05914495,,,
,,0.0023323551,,,
,,0.051692095,,,
,,0.044702522,,,
,,-0.025913933,,,
,,-0.010599601,,,
,,0.016846348,,,
,,0.049459994,,,
,,-0.054397833,,,
,,0.046564974,,,
,,0.008594511,,,
,,-0.019032719,,,
,,-0.052255895,,,
,,0.022806142,,,
,,-0.04122746,,,
,,-0.04344315,,,
,,0.037632633,,,
,,-0.006811239,,,
,,0.02119455,,,
,,0.015031329,,,
,,0.03377988,,,
,,0.0018761742,,,
,,0.02701177,,,
,,0.055241324,,,
,,-0.04913745,,,
,,-0.048299298,,,
,,-0.0031272676,,,
,,-0.02960509,,,
,,-0.007840989,,,
,,0.054121908,,,
,,-0.018433513,,,
,,0.01726535,,,
,,-0.05881437,,,
,,0.033535518,,,
,,0.04532729,,,
,,-0.04426847,,,
,,0.0131209325,,,
,,-0.018851636,,,
,,-0.026980521,,,
,,-0.024996255,,,
,,0.03049069,,,
,,0.022007251,,,
,,0.019038446,,,
,,-0.03868189,,,
,,-0.03884928,,,
,,-0.02756894,,,
,,0.046124294,,,
,,0.05009927,,,
,,0.032912835,,,
,,-0.037002333,,,
,,-0.0039649126,,,
,,-0.01755372,,,
,,-0.005992605,,,
,,-0.054526303,,,
,,-0.0022600815,,,
,,0.05077274,,,
,,0.024470877,,,
,,0.061481155,,,
,,0.018566612,,,
,,0.030726708,,,
,,0.06410859,,,
,,-0.034382965,,,
,,0.028117608,,,
,,0.027892554,,,
,,0.05997639,,,
,,0.03278925,,,
,,0.036007695,,,
,,0.015660612,,,
,,-0.02621205,,,
,,0.018061582,,,
,,-0.004200065,,,
,,-0.007404828,,,
,,-0.0071283896,,,
,,0.058024954,,,
,,0.083636306,,,
,,-0.043538917,,,
,,-0.020171553,,,
,,0.036146615,,,
,,-0.038184512,,,
,,-0.03135736,,,
,,0.04637339,,,
,,0.0119693605,,,
,,0.042620156,,,
,,-0.08794139,,,
,,-0.16511984,,,
,,-0.042292528,,,
,,0.06983461,,,
,,0.017482877,,,
,,-0.010987205,,,
,,-0.02971853,,,
,,-0.013859893,,,
,,-0.044795334,,,
,,-0.080988854,,,
,,-0.032501478,,,
,,0.023981841,,,
,,0.0066896463,,,
,,0.045391537,,,
,,0.04129792,,,
,,-0.011207977,,,
,,-0.03177757,,,
,,0.016718427,,,
,,0.052627567,,,
,,0.02702205,,,
,,-0.03559387,,,
,,-0.060591754,,,
,,0.03483334,,,
,,0.045700606,,,
,,-0.019064292,,,
,,-0.0047836183,,,
,,0.0374448,,,
,,0.016099937,,,
,,-0.056623932,,,
,,-0.014596962,,,
,,0.035270885,,,
,,0.059713487,,,
,,-0.018412229,,,
,,-0.03954289,,,
,,0.042199336,,,
,,0.023627827,,,
,,0.019208621,,,
,,0.0062858406,,,
,,-0.00018235313,,,
,,-0.048388656,,,
,,-0.04338233,,,
,,-0.03222355,,,
,,-0.025499063,,,
,,0.042057913,,,
,,-0.023295121,,,
,,0.030354824,,,
,,0.0011720515,,,
,,0.0195496,,,
,,-0.017551463,,,
,,-0.037648436,,,
,,0.005520726,,,
,,-0.037561283,,,
,,-0.06563995,,,
,,0.02818282,,,
,,-0.065726765,,,
,,-0.018153165,,,
,,-0.012962654,,,
,,-0.062135063,,,
,,0.03429638,,,
,,0.012564487,,,
,,-0.003379931,,,
,,-0.000107519045,,,
,,-0.07939343,,,
,,-0.046470672,,,
,,-0.091563575,,,
,,-0.081994854,,,
,,0.035529707,,,
,,-0.008621246,,,
,,-0.042294532,,,
,,8.319454e-05,,,
,,0.0068539255,,,
,,-0.09504719,,,
,,0.005637409,,,
,,-0.0029111751,,,
,,-0.01666236,,,
,,-0.019249,,,
,,-0.0051584085,,,
,,-0.050982736,,,
,,0.061315347,,,
,,-0.0037608366,,,
,,0.061214466,,,
,,0.0421741,,,
,,-0.045333095,,,
,,-0.06366702,,,
,,-0.022359751,,,
,,0.04638448,,,
,,0.0029233496,,,
,,-0.019596206,,,
,,0.009656919,,,
,,0.04746991,,,
,,0.00030881373,,,
,,-0.025902323,,,
,,-0.06333492,,,
,,-0.040561657,,,
,,-0.034193534,,,
,,0.05793489,,,
,,-0.056138285,,,
,,0.021103138,,,
,,0.026174478,,,
,,-0.0003286753,,,
,,0.04374828,,,
,,0.013630441,,,
,,0.008354106,,,
,,0.015772738,,,
,,0.06316798,,,
,,-0.0021780278,,,
,,0.04892211,,,
,,-0.023332477,,,
,,-0.019102506,,,
,,-0.036800113,,,
,,0.038066853,,,
,,-0.051417638,,,
,,9.01854e-05,,,
,,0.021535896,,,
,,0.03128536,,,
,,0.018113283,,,
,,-0.012984782,,,
,,-0.019868735,,,
,,-0.016254093,,,
,,-0.004215862,,,
,,-0.05412954,,,
,,-0.074451804,,,
,,-0.043722983,,,
,,0.0054663443,,,
,,0.004927063,,,
,,0.013803773,,,
,,-0.06327455,,,
,,-0.014869696,,,
,,-0.12295037,,,
,,0.007154302,,,
,,0.020968279,,,
,,0.0053914427,,,
,,-0.013241832,,,
,,0.003658431,,,
,,-0.08651518,,,
,,-0.091620445,,,
,,-0.022620339,,,
,,0.05448656,,,
,,0.0051817335,,,
,,-0.057849847,,,
,,-0.063593,,,
,,-0.0067322357,,,
,,0.06027351,,,
,,0.021188745,,,
,,0.054304432,,,
,,-0.0009639432,,,
,,-0.023920156,,,
,,-0.02130486,,,
,,-0.026447596,,,
,,-0.026113907,,,
,,0.04615501,,,
,,0.07657798,,,
,,0.016874833,,,
,,0.053560037,,,
,,0.039532945,,,
,,-0.020596443,,,
,,0.018995626,,,
,,-0.053540733,,,
,,0.036483467,,,
,,-0.060666174,,,
,,-0.040857434,,,
,,0.025771558,,,
,,-0.017714748,,,
,,0.032172043,,,
,,0.033461448,,,
,,-0.040691994,,,
,,0.0031162696,,,
,,-0.0059486446,,,
,,-0.0097287,,,
,,0.042106714,,,
,,-0.003927241,,,
,,0.032171533,,,
,,-0.026133753,,,
,,-0.018688934,,,
,,0.043255065,,,
,,0.028829722,,,
,,0.029415382,,,
,,0.033590484,,,
,,-0.06385824,,,
,,-0.036760386,,,
,,-0.021958966,,,
,,-0.046531867,,,
,,-0.014298376,,,
,,-0.024515746,,,
,,0.05842908,,,
,,0.0029542241,,,
,,0.035026662,,,
,,0.02504419,,,
,,0.03150253,,,
,,-0.052194692,,,
,,0.014605283,,,
,,0.041452717,,,
,,0.04467597,,,
,,-0.018394757,,,
,,-0.042309366,,,
,,0.03397107,,,
,,0.033683453,,,
,,0.045850165,,,
,,0.027955666,,,
,,-0.024864573,,,
,,-0.030504182,,,
,,0.042013288,,,
,,-0.016107151,,,
,,-0.012279502,,,
,,-0.03525172,,,
,,-0.0045701605,,,
,,-0.053961225,,,
,,-0.037066687,,,
,,0.045055218,,,
,,-0.028688373,,,
,,0.06438396,,,
,,0.0016562794,,,
,,-0.015477259,,,
,,0.043220904,,,
,,-0.002738343,,,
,,0.033922948,,,
,,0.04593171,,,
,,0.039451554,,,
,,0.021632427,,,
,,0.0036254553,,,
,,0.061163712,,,
,,-0.04648592,,,
,,-0.054526746,,,
,,-0.020787332,,,
,,-0.0049494156,,,
,,-0.051839996,,,
,,-0.017953807,,,
,,-0.0031956187,,,
,,-0.016915897,,,
,,-0.043762874,,,
,,0.00030528093,,,
,,-0.030681178,,,
,,0.10198369,,,
,,0.03935545,,,
,,0.018854178,,,
,,0.027760878,,,
,,0.016024377,,,
,,-0.006652888,,,
,,0.058602232,,,
,,0.014520839,,,
,,0.04972125,,,
,,0.07610748,,,
,,0.09371584,,,
,,0.023391524,,,
,,0.056504093,,,
,,-0.006594899,,,
,,-0.06841918,,,
,,0.037247982,,,
,,0.004212657,,,
,,0.071374305,,,
,,-0.022316603,,,
,,-0.018403776,,,
,,-0.016117403,,,
,,0.02298869,,,
,,-0.0847891,,,
,,-0.016602121,,,
,,0.0060457415,,,
,,0.018893052,,,
,,-0.0028765595,,,
,,0.06123895,,,
,,0.004272068,,,
,,0.06260456,,,
,,0.01392706,,,
,,0.047995392,,,
,,0.101501726,,,
,,0.12719566,,,
,,0.07307934,,,
,,0.0027539479,,,
,,-0.0071380464,,,
,,0.023821054,,,
,,0.02188911,,,
,,0.09694054,,,
,,0.10401055,,,
,,0.058047637,,,
,,0.065777086,,,
,,-0.017789984,,,
,,0.036872722,,,
,,0.057089962,,,
,,-0.021995498,,,
,,0.046733014,,,
,,0.015550916,,,
,,0.023308678,,,
,,0.05597729,,,
,,-0.0002545677,,,
,,0.031957,,,
,,-0.036357146,,,
,,-0.028595237,,,
,,0.024160895,,,
,,-0.021403411,,,
,,0.05750517,,,
,,0.054056566,,,
,,-0.027447166,,,
,,-0.008410341,,,
,,0.035459653,,,
,,0.012032251,,,
,,-0.03168632,,,
,,-0.025841672,,,
,,-0.026730815,,,
,,-0.044342764,,,
,,0.006979332,,,
,,-0.03178409,,,
,,-0.027054422,,,
,,0.026110066,,,
,,-0.05060399,,,
,,0.007749004,,,
,,-0.022399459,,,
,,-0.027066823,,,
,,0.061009105,,,
,,0.0069906465,,,
,,0.0062508215,,,
,,-0.05691453,,,
,,0.053128045,,,
,,-0.053836033,,,
,,-0.026154432,,,
,,0.00615349,,,
,,0.026190352,,,
,,0.019097017,,,
,,0.026667343,,,
,,0.041163914,,,
,,0.039768495,,,
,,-0.046338215,,,
,,-0.061258942,,,
,,0.0019629973,,,
,,0.06824854,,,
,,-0.021728812,,,
,,0.047602914,,,
,,0.0025077697,,,
,,0.069081165,,,
,,-0.030270025,,,
,,0.0033546141,,,
,,0.030383151,,,
,,0.062402856,,,
,,0.037447944,,,
,,0.053003274,,,
,,0.030469462,,,
,,-0.053582717,,,
,,0.012569209,,,
,,-0.016782166,,,
,,0.020961102,,,
,,0.0564704,,,
,,-0.044219527,,,
,,0.026243735,,,
,,-0.0059240554,,,
,,0.017468514,,,
,,-0.009095547,,,
,,-0.05652504,,,
,,-0.057493497,,,
,,-0.01863513,,,
,,0.041313883,,,
,,0.0014987757,,,
,,0.016506556,,,
,,-0.036395818,,,
,,-0.051066767,,,
,,-0.06586204,,,
,,-0.04913841,,,
,,0.014703653,,,
,,0.0070130755,,,
,,-0.00080427015,,,
,,0.056562304,,,
,,-0.01004224,,,
,,0.05872387,,,
,,-0.03952797,,,
,,-0.03163077,,,
,,0.016712666,,,
,,0.008384894,,,
,,-0.026492165,,,
,,-0.019041616,,,
,,0.050720815,,,
,,-0.020669237,,,
,,0.047402248,,,
,,0.045060135,,,
,,-0.043464847,,,
,,-0.009427483,,,
,,0.03468253,,,
,,0.043668218,,,
,,-0.002003756,,,
,,-0.06243098,,,
,,-0.026809227,,,
,,0.0513428,,,
,,0.012332097,,,
,,0.0004863614,,,
,,-0.04735099,,,
,,0.060090993,,,
,,0.044565994,,,
,,0.010474008,,,
,,-0.02741485,,,
,,-0.018859928,,,
,,0.032888412,,,
,,-0.03688207,,,
,,0.0047221603,,,
,,0.0012034752,,,
,,0.026168514,,,
,,-0.029721135,,,
,,0.025735091,,,
,,0.055257257,,,
,,-0.031652823,,,
,,0.009552186,,,
,,-0.06365875,,,
,,-0.036267526,,,
,,0.052252755,,,
,,-0.03574481,,,
,,0.0047796755,,,
,,0.027266989,,,
,,-0.00782428,,,
,,-0.021930408,,,
,,-0.0036120156,,,
,,-0.04552434,,,
,,-0.049075656,,,
,,0.052212946,,,
,,0.026991196,,,
,,-0.06260031,,,
,,-0.015886296,,,
,,0.047337078,,,
,,-0.008498542,,,
,,0.0027496703,,,
,,0.033324778,,,
,,-0.045315523,,,
,,-0.040627923,,,
,,0.029335054,,,
,,0.04686773,,,
,,-0.017084586,,,
,,-0.051202,,,
,,-0.04996093,,,
,,0.008913109,,,
,,-0.0045605134,,,
,,-0.012138609,,,
,,0.044736497,,,
,,-0.0066294665,,,
,,0.009404648,,,
,,-0.054866955,,,
,,-0.03768918,,,
,,-0.035369217,,,
,,0.04039606,,,
,,-0.030746486,,,
,,0.0559376,,,
,,-0.0044124746,,,
,,-0.0075029447,,,
,,0.028909126,,,
,,-0.033085484,,,
,,0.014928157,,,
,,0.056116663,,,
,,0.0046142116,,,
,,0.03727987,,,
,,0.058297224,,,
,,0.013546656,,,
,,-0.024894198,,,
,,0.0073515717,,,
,,0.008718679,,,
,,-0.04761962,,,
,,-0.026071323,,,
,,-0.013662133,,,
,,0.054002248,,,
,,-0.0062043644,,,
,,0.03875146,,,
,,-0.027747491,,,
,,0.031605974,,,
,,0.053628992,,,
,,-0.046909016,,,
,,0.031399623,,,
,,-0.04390083,,,
,,-0.030533418,,,
,,-0.012160333,,,
,,0.044469137,,,
,,0.045245726,,,
,,-0.02086054,,,
,,-0.018091252,,,
,,0.031659342,,,
,,-0.007835353,,,
,,0.0056243087,,,
,,0.058104,,,
,,0.02847573,,,
,,0.014305386,,,
,,0.018985122,,,
,,0.016634466,,,
,,-0.013301814,,,
,,-0.026522204,,,
,,-0.056504726,,,
,,0.006853012,,,
,,0.006664712,,,
,,0.046744548,,,
,,-0.060255196,,,
,,-0.03463618,,,
,,0.03530348,,,
,,-0.018478297,,,
,,-0.054364007,,,
,,0.030382646,,,
,,0.0088189095,,,
,,-0.034096055,,,
,,0.033425275,,,
,,-0.037698463,,,
,,-0.045285296,,,
,,-0.0106296325,,,
,,0.056970958,,,
,,-0.060758118,,,
,,-0.024604382,,,
,,-0.038648084,,,
,,0.065018244,,,
,,-0.020242512,,,
,,0.038485736,,,
,,-0.010402007,,,
,,-0.03205839,,,
,,-0.055128783,,,
,,0.05301119,,,
,,-0.039178066,,,
,,0.031472955,,,
,,0.022582285,,,
,,0.0103357015,,,
,,-0.060593307,,,
,,-0.054283682,,,
,,0.014249327,,,
,,-0.05037334,,,
,,0.044602986,,,
,,0.04296527,,,
,,0.0018545798,,,
,,-0.052036166,,,
,,-0.010990654,,,
,,-0.049798727,,,
,,-0.0015824875,,,
,,-0.033717033,,,
,,0.031180762,,,
,,0.005306676,,,
,,0.0062759635,,,
,,0.054417208,,,
,,-0.031226447,,,
,,0.0314051,,,
,,0.05461236,,,
,,-0.033870295,,,
,,-0.019197125,,,
,,-0.037176777,,,
,,0.032026473,,,
,,0.06666041,,,
,,0.039111383,,,
,,0.043548755,,,
,,0.046474863,,,
,,-0.014683159,,,
,,-0.041972686,,,
,,-0.038802505,,,
,,0.0152355,,,
,,-0.0448907,,,
,,0.0380406,,,
,,0.072742894,,,
,,0.06303976,,,
,,-0.02165147,,,
,,-0.04936483,,,
,,-0.059840407,,,
,,0.014013166,,,
,,0.045796722,,,
,,0.0060087475,,,
,,0.035449345,,,
,,0.011027938,,,
,,0.05132938,,,
,,0.010418354,,,
,,0.0041631116,,,
,,0.024681754,,,
,,-0.018142829,,,
,,-0.062180508,,,
,,0.010497737,,,
,,-0.037902594,,,
,,-0.021243718,,,
,,0.008253634,,,
,,-0.019498995,,,
,,-0.02527797,,,
,,0.0056962357,,,
,,-0.03367604,,,
,,-0.014290314,,,
,,0.0163134,,,
,,0.04005312,,,
,,0.0134183,,,
,,0.042063184,,,
,,0.017255418,,,
,,0.062310055,,,
,,-0.0122811105,,,
,,0.0009700624,,,
,,-0.028891342,,,
,,-0.003762284,,,
,,0.025756603,,,
,,0.043061312,,,
,,0.003410249,,,
,,0.0321824,,,
,,0.02376022,,,
,,0.025206458,,,
,,-0.003387969,,,
,,0.005512061,,,
,,0.02180518,,,
,,-0.049438883,,,
,,0.019875124,,,
,,-0.004601831,,,
,,0.009613914,,,
,,-0.05221513,,,
,,-0.06549999,,,
,,0.06879138,,,
,,0.056340557,,,
,,-0.04437794,,,
,,0.061024062,,,
,,-0.0030179506,,,
,,-0.053437162,,,
,,0.03252378,,,
,,-0.06951746,,,
,,-0.030044636,,,
,,0.05092051,,,
,,-0.047005985,,,
,,0.059765853,,,
,,-0.046492416,,,
,,-0.021695783,,,
,,0.003672397,,,
,,0.024725867,,,
,,-0.00017157158,,,
,,0.031569056,,,
,,-0.02806925,,,
,,-0.035323285,,,
,,0.0036365606,,,
,,0.051970296,,,
,,-0.053130504,,,
,,-0.026409576,,,
,,-0.01931519,,,
,,-0.018629732,,,
,,-0.04233703,,,
,,0.014242309,,,
,,-0.046869013,,,
,,-0.032086637,,,
,,0.0577825,,,
,,-0.024593884,,,
,,0.052097283,,,
,,-0.051463217,,,
,,-0.0058089863,,,
,,0.036317967,,,
,,-0.03116011,,,
,,-0.011632872,,,
,,0.03356141,,,
,,-0.051243808,,,
,,-0.0031722903,,,
,,0.0066058594,,,
,,-0.016433315,,,
,,0.03191552,,,
,,0.032620016,,,
,,0.021235276,,,
,,0.030354377,,,
,,0.0070285085,,,
,,0.016253415,,,
,,0.000117952965,,,
,,0.044424765,,,
,,-0.04708519,,,
,,-0.004098381,,,
,,0.07163318,,,
,,0.08447651,,,
,,-0.028018875,,,
,,-0.0011488338,,,
,,0.02082946,,,
,,0.051865257,,,
,,-0.021848409,,,
,,-0.021483298,,,
,,-0.060319126,,,
,,-0.006747513,,,
,,-0.05565785,,,
,,0.020603927,,,
,,0.04946953,,,
,,0.016373372,,,
,,-0.047033064,,,
,,-0.055697393,,,
,,-0.026991803,,,
,,0.022998028,,,
,,0.016136508,,,
,,-0.04084784,,,
,,0.03397755,,,
,,-0.04396294,,,
,,0.0479178,,,
,,0.0497391,,,
,,0.007146516,,,
,,0.049503487,,,
,,0.047228944,,,
,,0.021338603,,,
,,-0.026852883,,,
,,-0.055679858,,,
,,-0.033385005,,,
,,8.338214e-05,,,
,,0.032024834,,,
,,-0.024919324,,,
,,-0.025234487,,,
,,-0.042187724,,,
,,0.016118161,,,
,,0.043483797,,,
,,0.059747215,,,
,,0.025769886,,,
,,-0.002376824,,,
,,0.057332233,,,
,,-0.061598614,,,
,,-0.028749214,,,
,,-0.012955983,,,
,,-0.032348514,,,
,,-0.051488113,,,
,,-0.05572145,,,
,,0.068339825,,,
,,0.028065814,,,
,,0.056609537,,,
,,0.019528737,,,
,,-0.008985916,,,
,,-0.0060573104,,,
,,0.04118041,,,
,,0.024966855,,,
,,0.013590295,,,
,,0.040981516,,,
,,0.051213417,,,
,,-0.04092825,,,
,,0.01897643,,,
,,-0.028333899,,,
,,0.05342272,,,
,,-0.03476619,,,
,,-0.013803744,,,
,,0.016828207,,,
,,-0.0034175734,,,
,,-0.016515981,,,
,,0.039819345,,,
,,0.0380754,,,
,,-0.0041543366,,,
,,0.006184539,,,
,,0.03154395,,,
,,0.054532602,,,
,,-0.00707338,,,
,,-0.005797197,,,
,,-0.031639207,,,
,,0.014075611,,,
,,0.034000993,,,
,,-0.030925533,,,
,,-0.044542145,,,
,,0.04541591,,,
,,0.062488712,,,
,,-0.009554295,,,
,,-0.05738399,,,
,,0.047105066,,,
,,0.030489556,,,
,,0.0113374395,,,
,,0.04372692,,,
,,0.04721388,,,
,,0.031771176,,,
,,0.0033312608,,,
,,-0.054442946,,,
,,0.06026358,,,
,,-0.014371067,,,
,,-0.002993722,,,
,,-0.02042453,,,
,,-0.014941349,,,
,,-0.019668408,,,
,,0.04271417,,,
,,0.044345025,,,
,,-0.047943003,,,
,,0.055702865,,,
,,-0.006801391,,,
,,0.008610272,,,
,,-0.043179236,,,
,,0.025298001,,,
,,0.039897446,,,
,,-0.010072675,,,
,,0.010760074,,,
,,-0.010152459,,,
,,0.08323236,,,
,,0.040300447,,,
,,-0.004195439,,,
,,-0.0011665502,,,
,,-0.010433156,,,
,,-0.030657168,,,
,,0.029478488,,,
,,-0.012010508,,,
,,-0.045330353,,,
,,-0.040896676,,,
,,0.07183648,,,
,,0.051157884,,,
,,0.025849156,,,
,,0.009949937,,,
,,-0.05708047,,,
,,0.10053388,,,
,,0.018206617,,,
,,0.04434268,,,
,,-0.023432711,,,
,,-0.009308932,,,
,,-0.0066880765,,,
,,-0.01565336,,,
,,0.061166193,,,
,,0.030670693,,,
,,0.058051277,,,
,,-0.054002006,,,
,,0.0054697017,,,
,,-0.02159443,,,
,,-0.025438495,,,
,,0.017676074,,,
,,0.0053721694,,,
,,0.017124632,,,
,,-0.0053836927,,,
,,-0.018486632,,,
,,0.0125997495,,,
,,-0.030745372,,,
,,0.059064455,,,
,,0.0555226,,,
,,0.06913693,,,
,,0.03517511,,,
,,0.00020543179,,,
,,-0.0064807963,,,
,,-0.014802,,,
,,-0.013365301,,,
,,-0.012953992,,,
,,0.0070830244,,,
,,0.008064504,,,
,,0.07919715,,,
,,-0.008448324,,,
,,0.022889208,,,
,,-0.06055362,,,
,,-0.04248001,,,
,,-0.045346364,,,
,,0.0033782555,,,
,,0.043778215,,,
,,0.006726205,,,
,,0.057297632,,,
,,-0.035811476,,,
,,-0.049846027,,,
,,0.031374086,,,
,,0.041845366,,,
,,-0.0057478873,,,
,,-0.051652074,,,
,,-0.044060286,,,
,,-0.014077034,,,
,,-0.007423476,,,
,,0.024837216,,,
,,-0.005268818,,,
,,0.030023139,,,
,,-0.03579243,,,
,,-0.06624761,,,
,,0.0142005505,,,
,,0.050254587,,,
,,-0.006076155,,,
,,0.007335838,,,
,,0.048885506,,,
,,0.041635692,,,
,,0.07061709,,,
,,0.0037104958,,,
,,0.056687813,,,
,,0.081486,,,
,,-0.015465093,,,
,,-0.027544936,,,
,,0.045388933,,,
,,0.05350455,,,
,,0.02000831,,,
,,0.045280643,,,
,,0.0029674426,,,
,,-0.029554727,,,
,,-0.046007324,,,
,,0.03226411,,,
,,0.057475455,,,
,,-0.011627427,,,
,,0.01424799,,,
,,-0.11532956,,,
,,-0.089355245,,,
,,-0.051187962,,,
,,-0.024765976,,,
,,0.02544249,,,
,,0.05478061,,,
,,-0.020642078,,,
,,-0.00050231867,,,
,,-0.025697473,,,
,,-0.0486164,,,
,,0.015745837,,,
,,-0.043972217,,,
,,0.03415037,,,
,,0.035093524,,,
,,0.045897435,,,
,,-0.017307218,,,
,,-0.0040049236,,,
,,0.048386645,,,
,,0.009998546,,,
,,-0.03905463,,,
,,-0.016231393,,,
,,0.014536841,,,
,,0.008376164,,,
,,0.0020269568,,,
,,-0.046261247,,,
,,0.035349995,,,
,,-0.028167361,,,
,,-0.032665405,,,
,,-0.006832372,,,
,,-0.028540762,,,
,,0.06627432,,,
,,0.019616082,,,
,,-0.017984219,,,
,,0.0742239,,,
,,0.04975466,,,
,,0.013774685,,,
,,-0.057659015,,,
,,0.051958896,,,
,,-0.042202845,,,
,,0.0036987655,,,
,,-0.031108424,,,
,,0.017314706,,,
,,0.079247005,,,
,,0.032785483,,,
,,0.043319076,,,
,,0.002827697,,,
,,-0.047683112,,,
,,0.023112701,,,
,,-0.013258884,,,
,,-0.019909397,,,
,,0.076976255,,,
,,0.036030427,,,
,,0.03226083,,,
,,0.020903485,,,
,,0.014556253,,,
,,0.083109885,,,
,,0.031805564,,,
,,0.048753105,,,
,,-0.0070572924,,,
,,0.0065845875,,,
,,-0.041432366,,,
,,0.0025316156,,,
,,-0.05935669,,,
,,-0.040995408,,,
,,0.0018351238,,,
,,-0.010990088,,,
,,0.027839504,,,
,,0.038203347,,,
,,0.002766005,,,
,,0.018059576,,,
,,-0.012043992,,,
,,-0.030052442,,,
,,-0.03815327,,,
,,0.0019315111,,,
,,-0.07401245,,,
,,-0.02562767,,,
,,0.04561442,,,
,,0.006136531,,,
,,0.012174574,,,
,,-0.0013068992,,,
,,-0.010805945,,,
,,0.02355101,,,
,,0.0039337086,,,
,,0.046489112,,,
,,-0.012624377,,,
,,0.061534394,,,
,,0.008775605,,,
,,-0.060726583,,,
,,-0.0296777,,,
,,-0.0057460777,,,
,,0.05434595,,,
,,-0.059467405,,,
,,-0.0378674,,,
,,0.05661591,,,
,,0.03507179,,,
,,0.00017173466,,,
,,-0.03442116,,,
,,-0.03157212,,,
,,-0.061425917,,,
,,0.043562893,,,
,,0.013309753,,,
,,-0.03348522,,,
,,0.04430665,,,
,,0.01885153,,,
,,-0.017983442,,,
,,-0.010988235,,,
,,0.041029733,,,
,,0.00028883005,,,
,,-0.025363112,,,
,,0.03317075,,,
,,-0.049308274,,,
,,0.023140494,,,
,,-0.057389952,,,
,,-0.05488168,,,
,,0.02330359,,,
,,0.025256539,,,
,,0.026003897,,,
,,0.0060094753,,,
,,0.032786477,,,
,,0.01682755,,,
,,0.011954212,,,
,,0.040029217,,,
,,-0.032914758,,,
,,-0.066717684,,,
,,-0.017242944,,,
,,0.038908776,,,
,,-0.057974815,,,
,,0.009525386,,,
,,-0.02579014,,,
,,0.012248817,,,
,,0.022928897,,,
,,0.047673605,,,
,,-0.055592738,,,
,,-0.03828629,,,
,,-0.065030694,,,
,,-0.03250223,,,
,,-0.059562642,,,
,,-0.015820978,,,
,,0.048980203,,,
,,-0.05784512,,,
,,-0.06003907,,,
,,-0.04559105,,,
,,0.045165703,,,
,,-0.056831367,,,
,,-0.031358775,,,
,,-0.03148694,,,
,,0.005582336,,,
,,-0.052233875,,,
,,0.052479204,,,
,,0.024072153,,,
,,0.048428815,,,
,,-0.004239534,,,
,,-0.027647533,,,
,,-0.08251102,,,
,,0.015057721,,,
,,-0.064590715,,,
,,0.026830759,,,
,,0.05001609,,,
,,-0.0366346,,,
,,0.009205749,,,
,,-0.07214044,,,
,,-0.047394138,,,
,,-0.054094184,,,
,,-0.0358223,,,
,,-0.028594304,,,
,,0.0053700977,,,
,,0.042158596,,,
,,-0.047547016,,,
,,-0.03121963,,,
,,-0.03875014,,,
,,0.024140624,,,
,,-0.011920661,,,
,,-0.027924743,,,
,,-0.055360258,,,
,,-0.010451629,,,
,,-0.03980024,,,
,,0.030165212,,,
,,-0.077467486,,,
,,0.02567025,,,
,,0.052951515,,,
,,0.016555585,,,
,,-0.03759738,,,
,,-0.030174918,,,
,,-0.071439244,,,
,,0.044358946,,,
,,-0.05900499,,,
,,-0.03178738,,,
,,0.0010599178,,,
,,-0.058650013,,,
,,-0.028425975,,,
,,0.00040530693,,,
,,-0.04563543,,,
,,-0.0033707817,,,
,,-0.010127466,,,
,,0.048467934,,,
,,-0.033880323,,,
,,-0.0680989,,,
,,-0.00014918482,,,
,,0.012439098,,,
,,0.000825796,,,
,,-0.031686183,,,
,,-0.004456302,,,
,,0.025806943,,,
,,0.024468346,,,
,,-0.057205174,,,
,,0.0466832,,,
,,-0.03773461,,,
,,-0.011272676,,,
,,-0.036371242,,,
,,-0.061318178,,,
,,-0.0012365822,,,
,,-0.0033781857,,,
,,-0.061907656,,,
,,0.012709793,,,
,,0.01916907,,,
,,-0.045181412,,,
,,0.0368476,,,
,,0.04571316,,,
,,-0.0065786894,,,
,,-0.019700095,,,
,,-0.026481008,,,
,,0.041518815,,,
,,-0.0585525,,,
,,-0.050820623,,,
,,0.015466136,,,
,,-0.04539566,,,
,,0.0052035484,,,
,,0.05583797,,,
,,0.008842897,,,
,,0.05905656,,,
,,0.028148735,,,
,,-0.00049119134,,,
,,0.0015559518,,,
,,0.0032728524,,,
,,-0.0019525724,,,
,,-0.041927386,,,
,,-0.06623033,,,
,,-0.004576697,,,
,,-0.056809627,,,
,,-0.02702021,,,
,,0.05939945,,,
,,-0.049743976,,,
,,-0.013371127,,,
,,0.0010520148,,,
,,-0.015760612,,,
,,0.0189431,,,
,,-0.004196958,,,
,,-0.002157672,,,
,,0.0642481,,,
,,-0.06814041,,,
,,0.056254163,,,
,,-0.03646774,,,
,,0.0009414169,,,
,,-0.0037763435,,,
,,-0.038754392,,,
,,0.055494983,,,
,,0.028878974,,,
,,-0.012845822,,,
,,-0.022186039,,,
,,0.0062669455,,,
,,0.038320404,,,
,,0.02718845,,,
,,-0.032734554,,,
,,0.018674893,,,
,,0.029458301,,,
,,-0.018110737,,,
,,0.021561189,,,
,,0.039568443,,,
,,0.05433982,,,
,,-0.05663241,,,
